د 1.927435 -0.132568 2.078348 -0.942860 0.856402 0.009061 -0.881660 0.434190 0.052372 -0.747699 -0.762650 -0.451699 1.614814 -0.184833 -0.488919 -1.708685 -0.672440 0.060328 1.715060 0.745730 -0.974618 -0.413237 -1.589857 -1.339674 -0.609217 -0.120665 -1.443910 0.192932 -0.968683 0.794226 0.941527 0.224175 0.873677 1.629320 1.212026 0.053895 -2.111358 -0.713173 -0.373255 -0.398347 0.332720 -1.416175 1.511348 -0.676757 0.018811 -0.875162 -0.438714 1.191848 -1.275438 -0.512460
په 0.721554 0.328716 0.645467 -1.459486 -0.505972 -0.168888 0.466658 -0.021326 -1.337921 -1.058578 -1.407648 0.545182 0.082324 -1.079760 0.033351 -0.928712 1.560846 -0.363123 -0.554572 -0.047194 -0.995942 -1.314509 -1.224241 -0.527369 -1.361884 -0.466450 -0.285149 1.162577 0.886686 -0.032522 0.920304 1.729131 0.829125 0.713136 -0.349096 1.091610 0.566255 -1.280986 0.142147 -0.642778 0.390839 -1.142280 1.023905 0.376930 0.130730 -0.867171 -0.687584 0.015445 -0.161345 -1.925459
کې -0.342704 -0.362241 1.413137 -1.116942 -0.565558 0.591764 1.819967 -0.217829 -0.781362 1.690592 -1.289200 -0.167106 0.553512 -0.956199 0.140115 -0.802566 -0.750084 -0.561561 0.413656 -0.005096 -0.030910 -0.646902 -1.748567 -1.059818 0.622418 -0.023117 0.181266 1.243210 0.772215 -0.484029 0.682543 0.581648 0.796121 1.052756 -0.681203 0.437925 -0.790596 -0.278588 1.288887 -0.195107 1.144562 0.008422 0.634237 0.099718 -0.563006 -0.762622 -0.881991 0.588988 -0.559051 -0.897356
او 0.606754 -0.640084 0.755579 0.269958 -0.968675 -0.251533 -0.748577 -0.091533 -0.635496 -0.097359 -0.440443 -0.727823 0.411626 -1.128881 -0.400555 -0.630558 1.055985 0.505541 0.364412 -0.060856 -1.844115 -0.969549 -0.891805 -1.075841 1.023226 0.651131 -0.189881 0.449453 -0.896951 1.526556 1.101063 -0.423717 0.698375 0.498967 0.660463 2.002738 -0.101475 -0.840025 1.690822 0.650179 0.469903 -0.510218 0.092676 -0.865144 -0.751869 -0.506349 0.243542 -1.544755 -0.364026 0.174891
چې 0.015918 0.634105 0.665638 -0.183604 -0.593059 -0.299104 0.730848 0.492632 -0.750930 -0.345687 0.886249 -0.282530 1.363515 -1.248899 -0.748443 -0.122964 0.651108 -0.256492 0.363769 0.835328 -0.179680 -0.947855 -0.681995 -0.208175 -0.627053 -0.189175 -0.212562 1.097545 -1.636797 0.745814 0.144848 0.621317 0.244746 1.135638 -0.487204 1.042134 0.177351 0.055331 0.018214 0.389950 0.938283 -1.088157 0.502841 0.145828 -0.268124 -2.273481 -0.596591 0.650801 -0.665477 0.754199
له 1.472722 -1.164287 -0.213266 0.014761 0.129475 0.442321 0.128721 1.508188 -0.796109 -0.165315 -1.208783 -0.588752 0.630202 -0.758380 -0.306417 0.204088 0.802745 -0.313091 1.116314 0.588671 -1.145021 -0.996673 -0.366398 -1.998739 0.036295 -0.563527 -0.146565 1.574185 -0.058541 -0.075608 0.376794 -0.572592 -0.007762 0.416372 -0.298647 0.360165 -0.489068 0.670775 -1.142531 0.886366 0.692484 0.152983 0.223955 0.352365 -0.310255 -1.735183 -0.798805 0.293207 -1.171035 -0.225883
ته 0.132428 -0.228689 -0.081741 -0.127044 0.042488 -0.031290 0.389152 0.115639 -0.721883 0.300500 0.480914 -0.936512 0.944178 -1.387526 -0.659916 -1.573115 0.154027 -1.002620 0.813412 -0.074265 0.787458 -0.250473 -1.499249 -1.320414 -0.260192 0.440732 -0.024353 0.746925 -0.283760 0.790562 -1.143627 -0.128316 -0.196734 -0.082860 -0.106207 1.835962 -0.827878 -0.557132 -0.289408 0.311713 -0.129837 -0.548014 0.280740 0.651581 0.492313 -0.683458 0.874806 0.708520 -0.746682 -0.052480
یې 0.555201 -0.989695 -0.068905 -0.659100 -0.454676 -0.155811 -0.120422 0.159695 -1.665815 -0.102308 -0.605263 -0.945012 1.159078 -0.212606 0.472169 0.023458 0.127376 0.321855 -0.476133 -0.181385 -0.292875 -0.862111 -1.120425 -0.404810 -0.843443 -0.094335 -0.353047 0.803777 -1.123229 0.636412 0.545783 0.483355 0.414058 0.412274 0.279501 1.703900 -0.006632 0.215249 -0.091474 0.098151 0.947668 -0.751162 0.561543 -0.463585 0.014920 -0.841707 0.300052 0.251938 0.522897 -0.337555
نه 0.020616 0.136044 -0.009030 -0.342639 -0.269728 -0.171745 0.553849 -0.116298 -0.208921 -0.637049 0.072945 -0.513299 0.362597 -0.814365 -0.354054 0.541530 -0.287576 -0.675387 -0.286289 0.767232 -0.456298 0.151660 -1.284161 0.269862 0.412016 -0.333157 0.564974 0.488088 -1.131799 0.205407 1.712102 0.552637 -0.025900 0.926351 0.116087 0.358510 -0.978575 -0.239630 0.020743 -0.128960 0.411367 -0.620573 0.270563 -0.642167 0.031842 -1.105654 -0.757654 -1.051304 0.010240 -0.490066
هم 0.068667 -0.675424 0.297734 -0.644812 -0.733010 0.015178 0.665546 -1.069338 -0.579760 -0.051678 -1.078101 -0.695428 0.278632 0.206111 0.019514 0.567828 0.816555 0.521382 0.352096 0.213277 -0.075455 -0.208116 -1.029345 -1.133327 0.384848 0.007651 0.204112 0.095685 -1.572469 0.635079 -0.079159 0.081413 0.053887 0.292315 -0.074172 1.509756 -1.066073 -0.941280 -0.916627 -0.270513 1.096123 -0.211077 1.107626 0.313980 -0.024197 -1.121874 0.915582 0.367995 0.799936 -0.865479
سره 0.574029 -0.673061 -0.239579 -0.476685 -1.050277 0.646637 -0.030703 1.624477 -0.230892 0.187337 -0.429936 -0.918582 0.014067 0.427009 -0.103726 -0.996907 0.568351 -0.006564 0.555737 0.273303 -0.463019 0.347905 -1.234265 0.037413 0.215404 -0.512839 1.412223 -0.286786 0.072451 -0.639976 0.747414 0.312632 -0.328993 0.249425 0.955814 1.290695 -0.104902 0.057376 -0.972436 1.383920 0.516102 0.047752 0.206345 0.733539 -0.075463 -1.467666 -0.519751 0.029519 -0.423301 -0.319389
هغه 0.462555 0.417693 0.621124 -0.561768 -0.086504 0.670392 1.065858 -0.412635 0.283652 -0.199885 -0.023248 -0.923761 0.645786 -0.968260 -0.552357 -0.699741 0.991106 -0.942372 0.503767 0.428239 1.046169 -0.746523 0.510141 -0.856315 -0.152012 -0.041913 -0.051333 0.836511 -0.254969 1.086471 0.901287 0.192944 0.464457 0.243758 0.161675 0.493246 -0.682220 -0.205897 -0.047034 0.901157 0.743173 -0.933804 0.577546 -0.199581 0.251202 -0.058756 -1.009236 -0.008806 0.094589 -1.021944
دې 0.111064 -0.590387 0.523860 -0.500142 0.298405 0.243475 -0.012250 0.154006 -1.127583 0.405960 -0.845211 -0.481539 -0.788103 -0.568528 -0.471498 -0.255095 0.332013 0.356107 -0.593625 0.185323 -0.803171 -0.139946 -1.106938 -0.586848 0.071542 0.570564 0.375629 0.341938 0.093246 -0.015788 0.063932 1.005369 -0.066481 1.375454 -0.522026 0.725100 -0.207200 -1.365329 -0.327154 -0.485063 0.694356 -0.027453 0.140839 0.506562 -0.979789 -1.611767 -0.539630 -0.234138 -0.611067 -0.496208
پر -0.353429 -0.403826 -0.489784 -1.381638 -0.063933 -0.308424 -0.098154 0.621249 -0.607843 -0.483421 -0.551228 -0.504380 0.655891 -0.059926 0.685698 -0.727824 0.163045 1.209856 -0.111626 -0.754833 0.761964 -0.680846 -1.452255 -0.837723 -0.225702 0.065474 0.307948 0.592215 0.007280 0.477141 0.699546 0.822199 0.294856 -0.020947 0.335630 -0.276669 -2.026433 0.972815 0.151843 0.344110 0.029434 -0.484606 0.016865 -0.676197 0.183799 0.630569 -0.520761 0.242724 -0.605502 -0.531840
دا 0.684681 -0.396885 0.501523 -0.187474 -0.645249 -0.502991 -0.447927 -0.558822 -0.039597 -0.217526 -0.315286 -0.410128 1.630375 -0.331759 -0.990990 0.021607 0.972687 -0.010206 0.495758 0.971850 -0.661852 0.152249 -0.541763 0.192501 0.548634 -0.800142 0.552045 0.521075 -0.493817 -0.496859 0.390851 0.270106 0.618551 0.677248 0.047542 0.824924 -0.342604 0.036160 0.828714 0.725508 0.437264 -0.330223 0.749264 -0.021383 0.394896 -0.827616 0.145500 -0.097355 0.614066 0.159711
خو 0.127672 0.866731 0.919754 0.187611 -0.522002 -0.953662 1.055495 0.123280 0.514618 -0.564063 -0.142759 0.566251 0.283860 0.712095 0.608187 0.315588 0.481342 -0.429177 0.226062 -0.296478 -0.477982 -1.060186 -0.272620 -0.178280 -0.372448 -0.648027 0.547840 0.060527 -0.753463 0.293604 1.479621 0.361507 0.319328 0.494755 0.520422 1.011623 -0.105867 0.284939 0.251900 0.929198 0.548491 -0.522606 0.868810 1.037420 0.535008 -0.530394 -0.836252 0.052590 0.254870 -0.375944
به 0.180709 -0.336792 -0.980640 0.065923 0.449448 0.053029 0.092654 -0.085896 -0.270030 -0.493838 -0.335762 -0.212413 0.663513 -0.462657 -0.570576 -0.670777 0.433765 0.206853 -0.830818 -0.046240 -0.551754 0.297880 -1.389215 -0.166884 -0.801004 -0.196411 0.644577 0.416602 -0.709499 0.871346 0.290857 0.853905 -0.725434 0.639295 -0.205451 1.016070 -0.741063 0.537929 0.380014 -0.327371 0.451550 -0.192141 -0.188395 -0.181076 -0.710906 -0.790467 -0.262900 0.223407 -0.156189 -0.130664
یوه 0.447183 -0.018213 0.567088 -0.073280 -0.270558 0.470095 -0.283178 0.397015 -0.436471 0.498459 -0.557473 -0.743570 0.414906 0.621447 0.735525 -0.243882 1.069736 0.608951 -0.370777 0.149417 0.432177 -0.442502 -0.754984 -1.218209 -0.325087 0.608386 1.151006 0.247418 0.826903 -0.135371 0.222008 0.331077 0.575212 0.899636 0.336893 0.312761 -0.573665 0.021584 0.269181 0.122588 0.916970 0.345276 0.206169 0.180344 -0.082997 -0.801510 -0.757458 0.192791 0.339485 0.309581
لپاره 0.703516 -0.181020 -0.566735 -0.590004 0.214308 1.323760 -0.324913 0.039941 -0.435336 -0.589449 -0.516733 -0.299662 0.932988 -0.099198 -0.741253 0.419120 0.026584 -0.505077 -0.511162 0.656857 0.330937 -0.173833 -0.544578 0.139777 -0.746933 0.544495 0.520363 0.529261 0.623775 -0.087549 1.324879 -0.320066 -0.060569 1.094005 0.394738 0.477123 -0.436792 -0.161799 -0.793512 0.420232 0.492714 -0.045772 0.350649 -0.316510 0.255074 -0.207377 -0.479401 0.771224 -0.080104 -0.140162
کال 0.609583 0.329804 0.154692 -0.260100 -0.833750 -0.957730 0.177317 -0.367202 -0.683682 0.213716 -1.240509 -0.303424 -0.001208 -0.087692 0.200586 -0.294672 1.212098 1.185630 0.508873 -0.732350 0.800734 -0.425882 -0.452331 -1.092855 0.443663 0.292310 0.208332 0.822020 -0.078058 -0.976703 1.004248 1.201033 0.498800 -0.202665 -0.208848 -0.172246 -0.216743 -0.253428 -0.227923 0.478340 0.619327 0.275872 0.516970 -0.034928 0.586224 0.035019 -0.545280 0.044417 0.216819 -0.490534
تر -0.084122 -0.691546 0.153869 0.220737 0.572994 0.371771 -0.265937 0.641875 -0.204932 0.205579 -0.743749 -0.238635 -0.941936 0.366989 0.805645 0.047499 -0.290568 -0.501739 0.590934 -0.064321 -0.189815 -0.072329 -0.897547 -1.047918 0.220843 0.160186 0.282507 0.459790 0.048727 0.613683 0.852431 -0.065609 0.043087 1.137130 0.647225 0.030154 -0.770789 0.002372 -1.082564 -0.048994 0.019405 -0.148135 0.059653 0.691445 0.621675 -0.982281 -0.511272 -0.300617 0.035547 -1.054334
وروسته 0.350836 0.136654 0.288432 0.175558 -0.143581 -0.370750 -0.314213 0.186427 -0.524611 0.996554 -0.401761 -0.535876 0.597748 0.022014 -0.441670 -0.681547 0.937726 -0.515345 1.015568 -0.100217 0.542641 -0.950253 1.405487 -0.577403 -0.019457 -0.132225 -0.114564 0.768501 -0.017953 -0.121093 1.123964 0.264345 1.127869 0.056418 0.082922 0.027627 0.131147 -0.705174 -0.156544 0.194808 -0.374387 -0.553867 0.406060 -0.000999 -0.036795 -1.211287 0.191353 0.835892 -0.400190 -0.222167
یو 0.063100 -1.123776 0.802760 -0.290455 0.155352 0.789080 -1.196439 0.640347 -0.986243 -0.233359 -0.215738 -0.811445 1.018444 -0.000220 -0.575764 0.505142 0.344209 0.249509 0.065541 0.645402 -0.765318 -0.870764 0.301362 0.258825 0.234408 0.065996 0.004609 0.910495 0.244759 -0.119402 0.131815 -0.161222 0.561906 0.311430 -0.231019 0.135281 0.270202 -0.472724 -0.125519 1.159926 -0.009023 -0.110053 -0.058066 -0.517488 0.593291 -0.154407 -0.537280 0.444191 -0.222533 0.215240
دغه 0.847729 0.505589 -0.240167 -0.528056 0.205825 -0.163340 0.532099 -0.168073 0.081939 0.182108 -0.169664 -0.510695 0.616907 -0.065632 -1.096454 -0.483130 0.363388 -0.118496 0.329009 -0.566873 -0.255639 -1.326768 -0.288007 -0.699972 -1.199336 0.580051 -0.577034 0.808108 0.089100 0.149511 -0.161079 0.294776 0.195763 -0.113543 -0.409416 -0.250662 -0.887886 0.001587 0.412709 -0.688136 0.989563 0.529140 0.166579 0.397134 0.259360 0.338802 -1.120012 0.410826 -0.184515 -1.326217
يې -0.291769 -0.328317 0.081385 0.497922 0.719304 0.069266 0.145157 0.416902 -0.424138 0.445779 -0.065407 0.354619 0.681689 -0.307344 -0.693459 -0.697832 1.347907 -0.726566 -0.099569 0.460471 -0.576163 -0.471777 0.065298 -0.362086 0.169326 -0.459720 -0.158693 0.569918 -0.295172 0.475897 -0.494599 -0.134328 0.258131 0.563767 0.034074 0.419724 0.418011 0.017446 0.564220 0.340671 0.310706 -0.496273 1.170155 0.151902 -0.169547 -0.710198 -0.417118 0.602988 -0.787231 -0.092373
خپل 0.523545 -0.924191 0.062827 0.252249 0.631867 -0.386690 -0.095877 -0.266244 -0.516269 0.205317 -0.561356 0.209060 1.203965 -0.018768 -0.606480 -0.241796 0.741173 -0.060588 -0.008343 0.812110 -0.130201 -0.417322 -1.089537 -1.011553 -0.396952 0.029210 -0.064760 0.965151 0.402484 -0.194490 -0.114978 -0.191808 0.132822 0.880839 0.126045 0.170301 -0.952633 0.612668 1.107026 -0.502065 0.062446 -0.020867 0.784876 -0.548233 0.778058 0.062790 0.202985 0.122139 -0.211553 -0.028015
دوی -0.362489 0.162629 0.523521 -0.065563 -0.266490 -0.215123 0.136911 0.552679 -0.509129 0.218963 0.434561 0.289805 -0.224705 -0.689177 -0.067243 -0.622971 0.659600 -0.579296 1.228167 -0.468140 -0.073838 -1.183451 0.338512 -0.524247 -0.625995 -0.497345 -0.468631 0.633820 -0.869360 1.199665 0.283287 0.052765 0.228681 0.381796 0.260139 0.591737 0.465636 -0.315153 -0.990489 0.225250 0.387405 -0.811987 0.298434 0.985661 -0.098631 -0.675169 -0.455690 0.459555 -0.797194 -0.399442
دي. -0.454750 0.025046 0.212063 -0.618279 -0.624246 -0.399626 0.636040 -0.239843 0.394016 0.412126 0.404752 -1.097297 0.236997 0.055444 -0.324985 -0.164514 0.233622 -0.562225 0.603900 0.470964 -0.548273 -0.333940 -0.051539 -0.111683 0.044301 -0.132487 -0.426335 -0.164295 -0.799786 0.771243 -0.412433 0.396383 0.337635 0.464910 -0.074100 0.429842 -0.736340 0.178343 0.743484 0.245017 0.866523 -0.022859 0.773162 1.038304 -1.063424 -0.119291 -0.639678 -0.205275 0.025607 -0.432833
افغانستان 0.370673 -0.171652 0.453110 -0.005218 -0.311791 -0.510312 -0.763734 0.708509 -0.612409 0.065425 0.140968 -0.718410 0.734985 -0.179215 -0.000397 -0.610674 0.276101 -0.409740 0.127380 0.369233 -0.154796 0.193557 -1.284646 -0.514917 -0.197287 0.192995 -0.324071 0.316135 -0.474188 -0.029703 -0.254241 0.112323 0.312202 0.544810 0.724697 0.635005 -0.330452 0.048790 0.156917 0.268762 0.443338 -0.288689 1.051323 0.128970 0.328349 0.343718 -0.503933 -0.343521 -0.133451 -0.367029
که -0.222404 0.215700 1.036360 -0.093411 -0.197221 -0.230794 0.198797 0.155996 0.038286 -0.094390 0.419669 0.186333 0.597763 -0.422597 -0.998999 0.526965 0.731202 -0.301660 0.293626 0.471957 -0.140036 -0.227999 -0.756286 -0.345622 0.160077 -0.345894 0.087012 -0.240613 -1.042426 0.151902 -0.588042 0.021554 0.220795 0.799299 0.596123 0.458479 -0.494162 -0.978751 -0.017292 0.021754 0.874384 -0.085186 1.117090 1.026899 0.213385 -0.372602 -0.296064 -0.376850 0.107561 0.058753
شوي -0.789261 -0.048095 0.293439 -0.518806 -0.243382 0.196292 0.235377 -0.363007 0.055577 0.094782 -0.190903 -0.623794 0.739884 0.294042 -0.602556 0.679949 0.412678 -0.280945 0.352033 0.888523 -0.686489 -0.227470 0.008750 0.314500 -0.122406 -0.141812 -0.005495 0.019646 0.041709 0.222252 0.195758 0.012629 0.770199 0.761966 -0.004501 -0.425091 -0.968711 0.234262 0.690935 -0.240445 0.642605 -0.268307 0.921789 0.210313 -1.230989 -0.403952 -0.126672 0.093342 0.003677 -0.265227
انټرنېټ 0.648342 0.668847 0.592939 -0.064399 -0.012820 0.308968 -0.440563 -0.143206 -0.102965 -0.727027 0.373103 0.491696 0.573087 -0.612735 -1.067345 0.500542 0.590922 -0.197752 -0.136150 0.992835 -0.068047 -0.338094 -0.386602 0.135932 -0.180391 -0.222165 0.021869 0.279808 -0.008193 -0.373451 1.268204 0.205749 0.198777 1.205575 0.491409 -0.126204 -0.068696 -0.332903 0.398302 0.173449 0.706597 -0.383890 1.001162 -0.627088 1.043703 -0.395000 -0.671751 -0.592912 -0.185626 0.063489
ده -0.070440 0.173550 0.226794 -0.051503 -0.764966 -0.323000 0.918188 0.102940 -0.283140 -0.014428 0.249036 -0.447473 0.450880 -0.693019 -0.131748 -0.008052 0.085597 -0.813447 0.465840 0.673480 -0.512998 -0.113588 -0.384839 0.277118 0.421160 -0.589020 0.134475 0.644532 -0.537073 -0.018283 0.688727 -0.047214 0.131528 0.182248 -0.197723 0.510872 -0.031039 0.251929 0.155931 0.523125 -0.105914 -0.516525 -0.084755 -0.208608 -0.139437 -1.012256 -0.348782 -0.422529 -0.066268 0.174669
شي -0.113753 0.321121 0.450339 -0.266058 -0.451043 -0.687814 -0.423240 0.858341 -0.449868 -0.218647 -0.213500 -0.213901 0.853704 0.136968 0.339734 0.205749 -0.132506 0.092795 0.243205 -0.165429 -0.548681 -0.232703 -0.236606 0.071664 0.011420 -0.357398 0.073137 -0.059272 -0.026275 0.220566 0.902506 0.090774 0.649027 0.183789 -0.228262 -0.132327 -0.461361 -0.436598 0.192388 -0.440549 -0.568260 -0.784184 0.141920 -0.388793 -0.430710 -0.750366 0.304119 0.496130 -0.602518 -0.252928
وايي 0.675124 0.911014 -0.035709 0.671771 0.307389 0.434822 0.734794 -0.501495 0.275596 -0.082784 0.376012 0.211164 0.558277 -0.229353 -0.435052 -0.891094 0.341140 -0.929549 -0.012675 0.399969 -0.072162 -1.023277 0.626472 0.018598 -0.131518 -0.003634 -0.061424 0.051062 0.228907 0.582152 1.028714 -0.302048 0.270242 0.383786 0.094246 0.397188 -0.141913 0.427988 0.721777 -0.323195 0.041475 -0.838426 0.332483 -0.564208 0.489908 -1.340116 -0.446899 0.362569 -0.682822 -0.221051
څه -0.859941 0.110263 0.362883 -0.159931 -0.235110 0.128818 0.467091 -0.619227 -0.064454 -0.151231 0.579547 -0.173344 0.128215 -0.590330 -0.587401 0.192248 0.687435 -0.611034 -0.001315 0.200182 0.301338 0.164386 -0.586533 -0.176892 -0.120659 -0.119580 -0.169094 -0.249803 -1.142194 0.684109 -0.582524 0.196170 -0.181279 0.470718 0.134923 0.538064 -0.346847 -1.013013 -0.797675 -0.486781 0.872514 -0.488034 1.169379 1.031504 -0.155136 -0.379452 -0.073138 0.167928 0.257436 -0.756165
کړې 0.286254 -0.166542 -0.434533 0.006841 -0.334911 0.203595 0.131346 -0.212066 -0.086231 0.321434 0.225676 -1.487245 0.013646 0.002826 -0.672112 -1.212080 1.056808 0.100287 -0.045989 0.090397 -0.009434 -0.319620 -0.196218 0.249529 -0.646803 0.173010 -0.081750 -0.616044 -0.791730 0.337280 -0.559053 0.085933 -0.216180 -0.324317 0.231535 0.442014 -0.584220 0.312381 -0.281927 0.318386 1.021138 0.108983 0.002638 0.287939 -0.670993 -0.538074 -0.435565 0.125494 0.101858 -0.083312
بیا 0.667709 -0.543162 1.082242 0.276297 -0.710816 -0.583393 -0.096812 0.158549 -0.728419 0.380960 -0.309379 -0.112808 0.708375 -0.429538 0.256273 -0.187064 0.017601 -0.524182 -0.046144 -0.521752 -0.084538 -0.072844 -0.178696 -0.188661 0.368214 -0.287509 -0.041635 0.637515 -0.782877 -0.088692 0.636241 -0.569905 0.848743 -0.672771 0.010471 0.991887 0.174646 -0.284202 -1.018043 0.597056 0.042331 -0.139911 0.248899 -0.070949 0.777784 -0.185697 0.070341 0.064803 0.860299 -0.863884
یا 0.131098 -0.740150 0.333513 -0.350785 0.075159 0.729835 -0.489211 -0.976669 0.003509 0.293721 -0.562704 -0.435066 0.100728 0.660075 0.315839 0.178038 0.419522 0.228373 -0.118424 -0.127873 -0.369048 -0.367157 0.152160 0.081086 -0.546006 0.662402 0.243768 -0.000617 0.111130 0.536914 -0.046808 0.028861 0.595187 0.537682 0.646208 0.698321 0.079946 -0.222478 0.058555 -0.164131 1.225509 0.201777 0.215077 0.062881 -0.802643 0.127027 -0.092364 -0.314051 0.889747 -0.212299
اوس 0.229440 0.213880 0.344446 0.512189 -0.041433 -0.107381 0.594492 0.277096 -0.006850 0.193916 -0.010935 0.295320 0.426408 -0.080134 0.371475 -0.325151 0.291862 -0.466766 0.812228 0.126289 0.152010 -0.678943 0.510207 -0.759297 -0.208508 -0.563762 -0.150378 0.308721 -0.470714 0.582389 0.989392 -0.251908 0.387341 0.465188 0.375366 0.288341 -0.068631 0.649677 -0.040207 0.227195 -0.023962 -0.828046 0.446784 -0.100455 0.217528 -1.316817 0.170210 0.594363 -0.558654 0.142880
بي 0.517026 0.331149 -0.308311 0.670468 0.693236 0.790223 -0.205435 0.322466 0.225868 -0.299378 0.850203 -0.190642 -0.255517 -0.937948 0.276601 -1.257818 0.382954 -0.146564 0.683662 0.274130 0.754842 0.788828 -1.059554 -0.494552 0.595252 0.312780 -0.156742 -0.363694 -0.276210 0.648519 -0.590804 -0.544217 -0.817699 -0.364616 0.531785 0.341932 -0.296108 0.195160 -0.509880 0.188218 -0.080673 0.185157 -0.209890 0.787227 0.016080 -0.076625 0.471735 0.776048 -0.645920 -0.096583
کار 0.092212 -0.009724 -0.041559 0.093635 -0.231156 -0.243074 -0.342849 0.722225 -0.409175 0.401034 -0.255234 -0.556510 -0.093849 -0.235036 -1.113331 -0.450144 1.206190 -0.313280 0.700804 0.242623 -0.648228 -0.811306 0.495069 0.030476 0.155604 -0.651981 -0.189495 0.616056 -0.200333 -0.267860 0.554731 0.094663 0.491067 -0.228896 -0.114878 -0.288248 0.206047 -0.291094 -0.192875 0.358385 -0.036206 0.165201 0.000096 -0.239856 0.136493 -0.999056 0.050828 -0.452945 -0.480707 -0.218824
وايي، -0.149424 -0.237276 0.545780 -0.185693 0.397969 -0.599250 -0.483909 -0.558976 -0.035663 -0.473762 -0.073352 -0.488258 0.171405 0.849501 0.254898 0.520969 -0.874313 0.135972 0.251960 -0.269559 -0.126723 -0.235053 0.313987 0.151038 0.119094 -0.437697 -0.200129 0.210206 -0.350415 0.247853 1.338967 0.314355 0.466120 0.476078 0.288377 0.109675 -0.412654 -0.182236 0.185240 0.343265 -0.273709 -0.551755 0.483258 -0.589256 0.823949 0.289979 0.573512 -0.058297 0.137404 -0.050911
وزیر 0.267418 -0.333625 0.275364 0.091459 0.218143 -0.362913 -0.084260 0.117983 -0.808022 -0.460916 -0.404551 -0.077813 -0.239563 0.050389 -0.161700 -0.044491 -0.483166 0.323011 0.550869 0.337959 -0.844812 0.508634 -0.689498 -0.301647 1.250752 0.640482 -0.672024 0.493609 -0.226078 0.268887 -0.120571 -0.628302 -0.092908 -0.279672 -0.392897 0.441366 -0.116304 -0.155311 0.228274 0.460461 -0.696856 -0.440645 0.448284 -0.861891 1.084572 0.203244 0.669379 -0.412054 -0.316499 -0.061218
مشر 0.397604 -0.206434 1.157131 -0.236158 0.185784 -0.285340 0.019234 -0.195456 -0.195683 0.350844 -0.589972 -0.040098 0.242107 0.252401 -0.706767 0.742019 -0.489789 -0.028329 0.161370 0.135981 -1.083280 -0.053978 -0.150991 -0.010945 0.393750 -0.286331 0.006968 0.872156 0.350291 -0.254682 -0.032219 -0.207671 0.537030 0.408728 -0.110309 0.229282 -0.137305 -0.724825 0.384598 -0.103208 0.310514 -0.096838 0.301504 -0.406586 0.099891 0.616755 -0.023392 -0.703805 0.783148 -0.171935
هغې -0.263723 0.281244 -0.161697 -0.007743 0.310479 0.010639 -0.589186 0.239414 0.012129 -0.343864 0.322812 -0.200675 0.385649 -1.015223 -0.655724 -1.131982 0.099587 -0.219077 0.491294 -0.310240 0.129680 -0.031650 -1.077403 -0.339461 0.166724 -0.139789 -0.553796 -0.016542 -0.114251 0.322825 -0.246841 0.245168 -0.122804 -0.106148 -0.033413 0.039214 -0.388426 -0.205763 0.341287 -0.351516 -0.071032 -0.533907 0.123866 -0.556114 0.083748 0.048117 -0.001817 0.129167 -1.030319 -0.193418
دي -0.332962 0.382462 -0.293075 -0.295821 -0.064016 -0.216631 0.568469 -0.192490 -0.210728 -0.067207 0.457934 -0.264807 -0.133475 -0.408080 -0.359237 0.102512 -0.064070 -0.551911 -0.165245 0.203053 -0.552389 0.106813 -0.709385 0.304693 -0.269750 0.018326 0.201466 0.053888 -0.548743 0.167717 0.054157 0.372805 -0.078961 0.580920 -0.145661 0.334289 -0.397525 -0.409643 0.145405 -0.593985 0.157575 -0.095517 0.181730 0.268130 -0.517591 -0.751749 -0.326002 -0.447106 -0.221310 -0.322480
دی. 0.072676 0.055011 0.413592 -0.398174 -0.436889 0.345849 -0.403934 0.344254 0.006289 0.195064 0.244547 -0.443734 0.507394 -0.463355 -0.986271 -0.159909 0.050837 -0.658191 0.201761 0.319652 -0.228726 -0.011363 0.322258 0.741769 0.086671 -0.402335 -0.263690 0.202488 0.039909 -0.165409 0.401221 -0.260565 0.551836 -0.208061 0.006207 -0.530068 -0.314765 -0.439832 -0.357879 0.254294 0.620229 -0.302914 0.581271 -0.342892 -0.142165 0.020197 -0.497855 -0.168268 0.182571 -0.571364
و. -0.163513 0.564994 0.306438 -0.348831 -0.369997 -0.003633 0.165816 0.606960 0.341282 0.061380 0.298118 -0.162619 0.265061 -0.128992 -0.423425 -0.557491 -0.344074 0.007852 0.520626 -0.533143 -0.170852 -0.720050 -0.216800 0.318060 -0.445152 -0.258375 -0.656246 0.100248 -0.157382 -0.233682 0.473144 0.456774 0.444437 -0.386694 0.086916 -0.745018 -0.195417 -0.382222 -0.394369 -0.072197 1.111068 -0.327778 0.488203 -0.152384 -0.218156 0.060093 -1.018464 -0.156328 -0.043276 -0.661213
ورته -0.473138 -0.820318 0.000978 -0.983778 0.127412 0.430794 -0.312034 0.301207 -0.540947 0.422728 0.113820 -0.755846 0.147443 -0.135139 -0.090114 -0.186669 -0.562887 0.067605 -0.313899 -0.380351 0.469633 0.280925 -0.208169 -0.002578 -0.368498 0.115879 0.270060 -0.013980 -0.434802 0.379970 -0.113670 0.354750 -0.224989 0.569000 0.366669 0.725649 -0.314961 -0.532214 -0.128258 0.340861 0.246367 -0.012451 -0.240255 0.121329 -0.693682 0.002582 0.403918 0.068810 -0.122232 0.140655
وویل، 0.257252 -0.650316 0.128986 0.020831 -0.095036 0.028571 0.567918 0.330326 -0.767749 0.371812 -0.099967 -0.068183 0.479660 -0.571351 -0.254028 -0.121140 -0.349369 -0.590443 0.210890 0.494388 -0.078992 -0.041097 -0.173746 -0.052838 0.263630 -0.232869 -0.268346 0.727491 -0.653819 0.351843 -0.284499 -0.480082 -0.151726 0.142942 -0.306151 0.897533 0.131868 0.085150 -0.391853 0.237438 0.000533 -0.712859 0.433300 -0.255286 0.402707 -0.788321 0.349931 0.467867 -0.364270 -0.041925
پولیسو -0.157614 0.216751 0.231466 0.020614 0.439891 -0.111722 -0.519447 0.118152 0.118311 0.281483 0.092683 -0.194198 -0.055912 -0.715122 -0.258464 -1.347399 0.046183 -0.384207 1.142718 -0.227868 0.511109 -0.093987 -0.580691 -0.855066 0.395316 0.118120 -0.489705 0.160351 0.400564 0.323293 -0.135592 0.170627 0.420176 0.035587 0.130237 -0.097429 -0.452760 -0.641381 0.159122 -0.111525 -0.439056 -0.409810 0.357836 -0.166041 0.266030 0.283873 0.523075 0.119015 -0.844937 -0.357110
افغان -0.052042 0.036189 0.422375 -0.010249 0.028922 0.749272 0.316343 -0.164134 0.627378 -0.109967 -0.464999 0.468165 0.002800 -0.009218 -0.453001 -1.011127 0.566984 0.402217 0.018273 -0.749750 0.505967 -0.122876 -0.415811 -0.329359 -0.166335 0.279638 0.493501 -0.183072 -0.079582 0.503767 0.821128 0.569048 0.004670 0.300435 0.365288 0.113196 -0.726680 -0.009853 -0.371643 0.139409 0.419622 -0.552899 0.065889 -0.319402 0.251171 -0.426831 -0.097572 0.241293 -0.441008 -0.666000
برید 0.095239 0.537495 0.366032 -0.462650 0.384215 -0.037279 0.553532 0.052317 0.033685 0.172073 -0.247245 -0.134843 0.073212 0.235052 -0.337231 -0.194911 -0.804940 -0.024842 -0.052044 -0.269144 0.350602 -0.286330 -0.870048 -0.400519 -0.688621 0.389874 -0.340074 0.377255 -0.068297 -0.177326 0.124934 0.637875 0.001330 0.540239 -0.190050 -0.442804 -0.841993 -0.429255 -0.269413 -0.894676 0.441051 -0.160019 0.357389 0.120505 0.479490 0.136852 -0.800112 0.018061 -0.063782 -0.957810
خلک 0.163262 -0.511645 0.731689 -0.074437 0.376889 -0.144384 -0.720820 0.387848 -0.078274 -0.608241 0.082465 0.320798 0.328289 -0.194059 -0.360827 0.271891 -0.303230 0.055675 -0.001990 0.215073 -0.698828 0.118656 -0.290525 -0.114173 0.129567 -0.220809 -0.650491 0.139447 -0.533522 0.473394 -0.262097 -0.116102 -0.272506 0.233910 0.189341 0.549475 0.077906 -0.237564 0.321897 0.302152 -0.014351 -0.374522 0.569520 0.219366 0.053553 0.691787 0.199968 -0.165665 -0.370512 -0.241388
شوې 0.384575 0.302795 0.303234 -0.148282 -0.190395 0.481357 0.611214 -0.164200 0.194417 0.211917 -0.156065 0.192243 -0.045191 -0.729799 -0.433394 -0.786327 0.620120 -0.523341 0.027580 0.363312 0.172583 -0.114011 0.023874 0.333294 -0.329368 -0.665702 0.167930 0.083777 0.556703 -0.335635 0.051292 -0.141864 0.065558 0.113597 0.231486 -0.132799 0.258890 0.114100 0.363099 0.176933 0.334816 -0.131946 -0.053651 -0.054504 0.367945 -0.496873 -0.369997 -0.017830 0.224505 -0.153924
و -0.905116 0.163303 0.330677 -0.310416 -1.059228 0.034399 0.732546 -0.439529 -0.115848 0.414965 0.333052 -0.374682 0.173736 -0.259896 0.036713 -0.037094 0.311051 -0.434850 0.036420 0.027561 0.276768 -0.395983 0.066350 0.277166 0.292880 0.174687 -0.144044 -0.184761 -0.548523 0.424399 0.206183 -0.084415 0.499065 -0.105145 0.029323 0.576136 -0.080079 -0.508589 0.123840 0.023878 0.521566 -0.469248 0.179109 -0.054700 -0.442689 -0.391578 -0.104905 -0.456238 0.358825 -0.111707
ډول -0.355705 -0.257191 0.092597 -0.120292 -0.252877 -0.413139 0.274604 -0.178052 -0.210273 0.088830 -0.223467 -0.330833 0.909896 -0.287937 -0.076319 -0.387142 0.403458 -0.256806 0.146601 0.102301 -0.430029 -0.318679 -0.247115 -0.051085 -0.027785 -0.512930 0.124552 0.588257 0.020845 -0.013651 -0.329089 0.135124 0.321732 -0.044350 -0.325232 0.569533 0.031034 0.352229 0.752951 0.406018 -0.038482 -0.353075 0.162773 0.185784 -0.219515 -0.352295 -0.073488 0.324823 0.075706 0.095428
کله 0.301543 0.473001 -0.344229 0.438346 0.174290 -0.129867 0.524314 0.572900 -0.163131 -0.444265 0.631163 0.085641 0.639596 -0.480290 0.054857 -0.420265 0.136876 -0.685782 0.039929 -0.124108 -0.159242 -1.112181 0.522132 -0.230790 -0.891933 -0.371700 -0.100800 0.792346 -0.540994 0.847731 0.942536 -0.024624 -0.171454 0.396487 0.018541 0.634726 0.435089 0.970789 -0.130286 0.403320 0.074215 -0.717748 -0.380212 -0.129682 -0.183910 -1.073804 -0.630052 0.388190 -0.608984 0.398482
کېږي -0.444294 0.316654 0.772414 0.192648 -0.368685 -0.286799 0.303969 0.690448 -0.784609 0.718626 0.706014 0.430721 0.142598 -0.826624 -0.250747 -0.350214 -0.416783 -0.134484 0.064475 0.184511 -0.624466 -0.929347 0.021174 0.205104 0.096642 -0.036815 -0.028977 0.630012 -0.607622 0.392702 -0.092877 0.093787 0.200901 0.608146 -0.318196 0.444825 0.696832 -0.334371 0.666112 0.084689 0.034198 -0.433773 -0.194665 -0.533586 0.132270 -1.064353 -0.201838 -0.089404 -0.852373 0.890700
جام 1.265793 0.522652 -0.509501 0.137528 1.041945 -0.442547 -0.186081 0.142571 0.092213 -0.719135 -0.244510 0.053621 0.361223 0.160848 -0.355162 -0.216870 0.202617 0.115192 -0.228754 -0.174726 -0.623860 -0.767815 -0.703293 -1.057973 -1.080250 0.189351 -0.343016 0.652618 0.237763 -0.067663 -0.359732 0.373892 -0.492799 0.068099 -0.516009 -0.354354 -0.493159 0.197550 0.058787 -1.015490 0.276505 0.259803 0.253267 0.119436 0.521615 0.302130 -0.800915 0.298302 -0.465878 -0.886244
شي. -0.428930 0.337294 0.183071 -0.326574 -0.147882 -0.115045 0.695391 0.114680 0.480634 0.123512 0.490459 -0.246346 0.357772 0.174578 -0.145940 -0.173057 -0.627372 -0.185823 0.022109 -0.533226 -0.253441 -0.065261 -0.677556 0.185895 -0.189103 0.219360 0.214351 -0.508433 -0.676508 0.203600 -0.079810 0.063022 -0.057100 0.158794 0.077074 0.263332 -0.549598 -0.141447 0.130128 -0.214249 0.450791 -0.005367 0.197171 0.681719 -0.057827 -0.247108 -0.376926 0.223890 -0.195290 -0.545832
داسې 0.215867 0.492257 0.020349 -0.209882 0.276256 0.000566 0.698687 -0.500543 0.038691 -0.210600 -0.550857 -0.059083 -0.006060 0.076664 0.184463 -0.278621 0.155166 -0.331783 0.105452 -0.232155 -0.024433 -0.393062 -0.139388 -0.369286 -0.352882 -0.217488 -0.233862 0.377369 0.003919 -0.035305 0.588112 0.296139 0.116457 0.083905 -0.341852 0.213588 -0.303930 -0.218732 -0.152350 -0.731412 0.213099 -0.510019 0.694986 0.005427 0.070632 -0.401322 -0.271806 0.351798 -0.026127 -1.049838
ده. 0.399627 0.528554 0.184057 -0.245625 -0.239619 0.004365 0.315393 -0.620937 0.312759 -0.635843 0.212268 0.045609 0.311972 -0.751982 -0.830487 -0.423419 0.584574 -0.375634 -0.303482 0.348216 -0.192246 -0.270551 -0.187029 0.549037 -0.605416 -0.216138 -0.441298 -0.308096 -0.405124 0.338016 0.410273 0.000609 -0.067719 0.073103 0.353940 -0.224933 -0.278597 0.014174 0.639392 0.002429 0.432699 -0.423278 0.283111 -0.474501 0.042338 0.096143 -0.562134 -0.534707 0.241026 -0.272936
دوړ 0.054486 -1.106628 0.608920 0.159358 0.650523 -0.272704 -1.067637 0.072228 -0.299189 0.736246 -0.112751 -0.786532 -0.576921 0.098021 -0.952151 -0.134908 -0.237696 0.522867 0.445015 -0.737754 0.074674 0.193286 0.086571 -0.628080 0.792362 0.174454 0.206927 0.518550 -0.330638 0.532624 0.221358 0.268900 0.370739 0.569468 0.590498 0.199322 -0.346923 -0.739376 0.639951 0.698781 0.067934 0.168112 0.514974 -0.018833 0.492866 0.789555 0.749238 -0.610392 -0.311955 0.337006
شوی -0.414399 0.261943 0.171536 -0.350228 -0.626607 0.122403 -0.390344 0.585372 -0.021363 0.114395 0.351602 -0.224143 0.521501 -0.493177 -1.061090 -0.122934 -0.289646 -0.321150 0.220865 -0.307681 -0.097780 -0.389371 0.068252 0.632349 -0.046351 -0.343279 -0.470835 0.431372 -0.127251 -0.415557 0.529517 0.101338 0.360114 -0.523992 -0.309304 -0.794227 0.052578 -0.561515 -0.396515 0.112924 0.585910 0.038951 0.206811 -0.420328 0.046917 0.053024 -0.869233 -0.132613 0.105447 -0.693307
نوموړي -0.039009 -0.058311 -0.207963 -0.864730 -0.463258 0.075501 0.341831 0.573553 -0.437085 0.225311 -0.376340 -0.539429 0.442530 0.411320 0.066786 0.025023 -0.283636 -0.052623 0.191559 0.119901 0.240018 -0.553384 -0.128608 -0.157378 -0.708878 -0.091139 -0.480045 0.131247 0.166570 -0.094181 0.313872 0.247865 0.463553 0.206074 0.082508 -0.821750 -0.844997 0.299549 -0.372588 -0.147951 0.548040 -0.029063 0.449123 -0.001214 -0.554611 -0.234372 -0.570651 0.274642 -0.055499 -0.259667
وخت 0.374109 -0.228014 0.076215 0.426669 0.043560 -0.494877 -0.271189 0.093482 -0.042670 0.217508 -0.121020 -0.133855 0.234169 0.390024 -0.154839 -0.582260 0.536480 0.193470 -0.026625 -0.447446 -0.178180 -0.710828 0.260930 -0.114279 -0.459471 -0.008815 0.260923 -0.017440 -0.251059 0.500588 0.656584 0.127697 -0.282592 0.376858 0.427612 1.379794 0.404202 -0.003986 0.256513 0.618072 0.143623 -0.307279 -0.255646 0.003244 0.476351 0.027011 0.100170 -0.023165 0.114493 0.184410
وي -0.147089 0.363548 -0.008605 -0.190548 -0.278696 -0.290310 0.174238 -0.369164 -0.290444 -0.330346 0.663112 -0.674540 0.657384 -0.805189 -0.722539 -0.416231 -0.504718 -0.574202 -0.161570 0.463948 0.064948 0.280940 -1.027303 0.705752 -0.189906 0.127432 -0.304602 -0.036752 -1.333932 0.272986 0.432857 0.265686 -0.008819 0.357999 -0.103473 0.149875 -0.854306 0.137776 0.386260 -0.621296 0.188960 -0.865369 0.208827 -0.743985 -0.030759 -0.875772 -0.090154 -0.295473 -0.103077 -0.222709
وي. 0.368408 -0.080296 -0.213092 0.142362 0.459719 -0.023378 -0.057231 0.254657 0.219439 -0.571847 -0.117168 -0.087687 0.499643 0.427100 -0.166828 0.146374 -0.202937 -0.239473 -0.135516 0.226102 -0.978181 -0.202442 -0.210394 0.225879 -0.484391 -0.322099 -0.028819 0.178804 -0.418846 0.268005 0.395179 0.058804 -0.071259 0.432111 0.031801 -0.002848 -0.286423 0.445210 -0.014166 -0.155450 0.116960 -0.294871 0.070093 -0.212053 -0.329206 -0.682381 -0.411929 -0.130702 0.002109 -0.194605
ډیزني 0.861041 0.460066 0.412378 -0.004041 0.388369 -0.468523 -0.237625 0.195543 0.414305 -0.312167 0.219285 -0.225524 0.454054 -0.183106 -0.673921 -0.067506 0.395478 0.076487 0.739441 -0.115054 -0.062953 -0.391392 0.122506 -0.725298 -0.310449 -0.327773 -0.677666 0.259752 -0.477832 0.205077 -0.226346 -0.060906 0.181902 0.065729 0.315570 -0.453363 -0.598300 -0.214003 0.019931 -0.404356 -0.092085 -0.472156 0.584428 0.225229 0.566591 0.428606 -0.015312 -0.011343 -0.187457 -0.401209
کړي -0.607038 -0.277223 0.352178 -0.222674 -0.567608 0.036320 0.456573 -0.472402 0.177203 0.241466 -0.115279 -0.338804 -0.154296 0.034491 0.240809 0.205953 0.571590 -0.291031 0.123300 0.225259 -0.690844 -0.120215 0.269316 0.258557 0.271160 -0.127213 0.115543 -0.467699 -0.425831 0.591464 -0.015188 -0.081547 0.348376 0.060362 0.146412 0.715492 0.021310 -0.120751 0.374790 0.238958 0.659320 -0.168302 0.312799 0.673313 -1.061340 -0.223734 -0.188511 -0.272531 0.403109 -0.299450
کېږي. -0.142800 0.426852 0.022177 -0.220381 0.042366 0.036551 0.298923 0.147511 0.615765 -0.320529 -0.006376 -0.112966 -0.019318 -0.050289 -0.014016 0.033465 0.034729 -0.211108 0.367428 -0.353848 -0.243801 -0.112741 -0.469794 -0.594330 -0.124743 -0.019841 -0.029009 -0.427192 -0.194234 0.498684 -0.593707 -0.027304 -0.156671 -0.131457 0.014287 -0.021118 -0.651954 -0.316545 -0.557092 -0.136181 0.334455 0.144114 0.252168 1.029312 -0.317440 0.104585 -0.328634 0.383722 0.083280 -0.484525
امریکا 0.905311 -0.112632 0.195849 0.262181 0.362190 0.424467 -0.694673 0.111043 0.447574 -0.214513 -0.304726 0.127466 -0.330736 -0.120953 -0.163710 -0.367887 0.487765 0.098199 0.537242 -0.174153 -0.131499 -0.133032 -0.197433 -0.920682 -0.309325 -0.069620 -0.701717 -0.446390 -0.551358 0.557022 0.029480 -0.412171 -0.294511 0.234068 0.825772 0.139474 -0.382172 -0.414831 -0.673787 -0.532381 0.380153 -0.024343 0.229059 -0.005877 -0.030706 0.200985 0.308322 -0.170832 -0.004051 -0.632967
خلکو 0.620241 0.011353 0.057309 0.074605 0.992021 0.108973 -0.543356 0.101834 0.058085 -0.850349 -0.073582 0.401114 0.128218 -0.206292 -0.338976 0.096658 -0.497728 -0.008788 -0.493031 0.167137 -0.348144 0.083575 -0.366610 -0.286243 -0.653876 0.382228 -0.353434 0.055693 0.018785 0.329025 0.389220 0.152602 -0.404598 0.964393 0.263621 -0.269595 -0.276974 -0.658044 -0.415802 -0.835031 -0.151248 -0.370383 0.308262 -0.093114 0.087106 0.145300 -0.361664 -0.010060 -0.313584 -0.500192
دی -0.459473 0.319715 0.300839 -0.457446 -0.697555 -0.060844 0.532901 -0.158225 -0.281810 -0.085853 0.621339 -0.017613 1.026885 -0.826755 -0.627993 0.280484 -0.196216 -0.639366 -0.336950 0.293371 0.248166 -0.253989 -0.238462 0.804304 0.154371 -0.329557 0.365465 0.440688 -0.480182 -0.050503 1.030560 0.183296 0.262307 0.407193 0.125119 0.262289 -0.229201 -0.188713 0.652282 0.456814 0.083756 -0.569648 0.036040 -0.581157 0.384184 -0.318675 -0.315496 -0.248696 -0.002878 0.146095
سي 0.370929 0.478210 -0.485075 0.721084 0.520636 0.373861 0.138823 0.327006 0.178174 -0.188357 0.981959 -0.259496 0.027010 -1.108197 -0.051040 -1.082450 0.208185 -0.804006 0.895253 0.399446 0.730307 0.696949 -0.726625 -0.327816 0.468480 0.073914 0.134354 0.050662 -0.293615 0.796423 0.025303 -0.472029 -0.554811 0.072934 0.420024 0.624003 -0.373420 0.665165 -0.324270 0.433941 -0.224170 -0.269031 -0.083156 0.575832 0.181973 -0.602663 0.370247 0.646558 -0.727826 -0.016754
لاس 0.033338 -0.404192 -0.087328 -0.760778 -0.178290 -0.227664 -0.058657 -0.213240 -0.464942 -0.046454 -0.763881 -0.152458 0.188364 0.175986 -0.255240 0.449040 0.317231 0.591478 -0.190324 0.034795 -0.779457 -0.143832 -0.560691 -0.159862 0.105774 -0.094029 -0.006945 0.356386 0.017675 -0.315818 0.249549 0.430904 0.189767 0.301913 -0.312789 -0.195782 -0.559469 0.076168 0.512418 -0.227618 0.287289 0.363014 0.164444 -0.264184 -0.533089 0.131757 -0.306528 -0.321693 0.167913 -0.441978
لکه 0.027982 0.294141 -0.610452 0.101580 -0.238775 -0.239788 0.301278 -0.253431 -0.155184 -0.265299 0.740125 -0.413154 0.617256 -0.691899 -0.311346 0.127819 -0.565586 -0.712543 -0.176412 0.460582 0.360286 -0.037968 -0.130382 0.604372 -0.164943 -0.104177 -0.051244 0.456612 -0.913306 0.249092 0.748130 -0.071230 -0.193982 0.078108 -0.405204 -0.015500 -0.379548 0.663487 0.023449 -0.208579 -0.058806 -0.738538 -0.225014 -0.884237 0.179684 -0.795798 -0.058722 -0.124526 -0.150747 0.169354
مخکې 0.085731 -0.112183 -0.087422 -0.239218 0.318047 -0.063619 -0.354523 0.355924 -0.758293 -0.093386 -0.338410 -0.139945 0.303116 -0.140439 -0.133322 0.361659 0.170974 0.032686 -0.270746 -0.091220 -0.125474 -0.756442 0.181214 -0.484900 -0.556476 0.052893 0.237200 0.727892 0.106284 0.200163 0.886316 0.612130 0.444191 0.844524 -0.289766 -0.194949 0.102390 -0.330809 -0.256456 -0.361203 -0.003426 -0.139668 -0.122524 -0.154357 -0.238737 -1.083660 -0.492399 0.275625 -0.463217 -0.059406
مهال 0.187695 -0.082643 0.326677 -0.484819 -0.103319 0.407810 -0.201869 0.322528 -0.120267 -0.065398 -0.325976 -0.469514 0.226887 -0.114727 -0.188352 -0.378238 0.574917 0.073331 -0.006038 -0.411838 0.464868 -0.457856 0.367752 -0.574117 -0.404580 0.138586 0.031910 0.170449 0.061612 0.584229 0.598121 0.307563 0.224255 0.113162 0.267524 0.149625 -0.160816 -0.483872 -0.505233 0.507947 0.395161 -0.322881 0.041451 -0.246144 -0.198647 -0.058021 -0.282747 0.094011 -0.113303 -0.481753
نوم -0.126957 -0.011674 0.370344 -0.071943 0.197103 -0.184664 0.770324 -0.468464 -0.316867 0.215330 -0.391730 -0.276415 0.198094 -0.043415 -0.318826 0.414508 0.474574 -0.162423 -0.331444 0.368269 -0.853643 0.108821 -0.171881 0.043183 0.067164 -0.229301 -0.061840 0.221115 -0.425253 0.025168 -0.316983 -0.063626 -0.010409 0.347848 -0.699351 0.598013 -0.089762 0.061224 0.559834 -0.666762 0.266041 -0.359171 0.560393 0.273117 -0.439517 -0.508333 -0.119397 0.321180 0.048952 -0.314592
هېواد 0.563027 -0.144045 0.639092 -0.475460 0.318670 -0.129247 -0.296549 -0.016256 -0.236130 0.179561 -0.531363 -0.291791 0.643473 0.570895 -0.428555 0.074677 0.084035 0.707087 0.166981 -0.124156 -0.664543 -1.034118 -0.177004 -0.553472 -0.552892 0.456392 -0.229560 0.612046 0.360207 -0.215740 -0.143744 0.414983 0.584449 0.396627 -0.320103 -0.241719 -0.409377 -0.156693 0.495955 -0.447578 0.606504 0.259631 0.204783 0.091448 0.033202 0.311955 -0.723965 0.254957 0.004552 -0.510839
ویل -0.352054 0.354562 0.588649 0.295815 -0.554444 -0.270947 0.233540 0.621797 -0.656331 0.283461 0.459879 0.296216 0.245360 -0.431097 -0.003847 0.115821 -0.000181 -0.026465 0.039818 -0.255746 -0.661955 -1.039416 0.325997 0.133325 -0.062161 -0.134804 -0.356981 0.616991 -0.670429 0.608046 0.164252 -0.141108 0.608362 0.104659 -0.372995 0.030790 0.521951 -0.237204 0.259625 0.040071 0.319489 -0.322351 -0.068094 -0.387991 -0.370745 -0.799191 -0.437689 -0.006622 -0.401795 0.220536
پلار -0.679085 -0.656191 0.285704 -0.349698 0.439506 -0.158164 0.107549 0.246482 -0.643361 0.487194 0.328063 -0.184721 0.718540 -0.423657 -0.319679 0.097670 -0.196929 0.208116 -0.135169 0.173547 0.428780 -0.067506 -1.088417 -0.426055 -0.095429 0.042541 -0.093203 0.330079 -0.535714 0.049455 -1.107043 0.052114 0.025485 0.469773 0.074462 0.276804 -0.523764 -0.409923 0.432668 -0.088159 0.246662 0.348287 0.294215 0.355719 0.107803 0.153290 0.151967 0.120855 -0.254572 0.306083
ډېر -0.286251 0.210110 0.016974 0.070265 -0.551724 -0.096871 0.498054 0.040688 0.253483 0.122183 0.302116 -0.157004 0.191524 -0.052359 0.069361 0.327443 0.100003 -0.516827 0.407712 0.234815 0.091043 -0.132834 0.471392 0.149051 0.470796 -0.359548 0.127470 0.113324 -0.083404 0.100437 0.613158 -0.235681 0.305623 -0.262233 -0.003356 -0.046804 -0.053972 0.347976 0.068727 0.503155 -0.053913 -0.056592 0.017286 0.066566 -0.256769 -0.140711 -0.052376 -0.231957 0.112040 0.131197
کړی -0.411820 0.321294 -0.213687 -0.627850 -0.659734 0.191922 -0.177624 0.643108 0.187893 -0.067194 0.126681 -0.642261 -0.157794 -0.013060 -0.689068 -0.229455 -0.230400 -0.395031 0.307466 -0.665404 0.033068 -0.472024 -0.319625 0.359899 -0.208484 -0.132382 -0.457397 -0.007957 -0.458001 0.060426 0.686290 0.185405 0.223022 -0.204631 0.238404 -0.332556 -0.220155 -0.304128 -0.537686 0.237212 0.654676 -0.093325 0.332616 -0.461756 0.059724 0.095883 -0.380790 -0.811922 0.209332 -0.525388
امریکايي 0.798758 -0.575639 -0.249274 -0.705265 0.388607 -0.042314 -0.401217 0.976187 -0.281801 0.185419 -0.727266 -1.096435 0.072081 1.011508 -0.064745 -0.147277 0.040686 0.559510 0.128106 -0.449505 -0.203770 -0.576680 -0.193756 -0.792211 -0.589449 0.303664 0.404430 0.330970 0.271657 -0.263314 0.436138 0.802536 -0.055828 0.415127 0.313493 -0.415018 -0.696737 0.099509 -0.325204 0.330727 0.393966 0.402971 -0.184524 0.251965 -0.005320 0.150550 -0.973427 0.368622 -0.175015 -0.483879
ان 0.332238 -0.293362 0.261885 0.027329 0.314714 0.268658 -0.549392 0.039169 -0.117658 -0.292490 0.081396 0.242328 0.284581 -0.060430 0.171081 0.146310 -0.257256 0.080080 0.025952 -0.210695 -0.442592 -0.777609 0.296575 -0.184300 -0.608356 0.223638 -0.468131 0.225633 -0.329336 0.747040 0.831754 0.032492 0.188333 0.748293 0.627603 0.330813 0.309257 0.203033 -0.133218 0.178703 0.373413 -0.363577 -0.079466 -0.158004 -0.286460 0.094331 -0.258536 -0.066515 -0.344648 0.283176
اړه -0.044294 -0.324603 0.678552 -0.201719 0.321601 0.206062 0.266821 0.011487 -0.749027 0.717052 -0.765287 0.123883 -0.412533 -0.140783 0.312836 -0.345872 0.183954 0.100259 -0.186810 -0.262130 -0.359707 -0.576577 -0.015591 -0.647462 0.022927 0.267224 -0.090509 0.537525 0.461006 0.098469 -0.020316 0.353221 0.348003 0.457622 -0.571678 0.113243 0.318274 -0.553450 0.196188 -0.673254 0.526671 0.051640 0.010161 -0.011505 -0.404688 -0.395497 -0.496533 0.129637 -0.184075 -0.603120
تړاو -0.069819 0.015313 0.159127 -0.179917 0.227251 -0.065883 0.048060 0.328292 -0.329231 -0.125446 -0.285910 0.054531 -0.735146 -0.128634 0.095496 -0.254552 -0.258448 0.008589 -0.307334 -0.517372 -0.101828 0.080995 -0.471765 0.057438 -0.021944 0.220521 0.461631 0.104022 0.115350 -0.203578 0.706209 0.687794 -0.102415 0.365479 0.148320 0.326034 0.108982 -0.633565 -0.520825 -0.060298 -0.214583 -0.116728 -0.333280 0.194568 0.200748 -0.345015 -0.308248 -0.414014 -0.468180 -0.574346
خبرې 0.044904 -0.242276 0.023723 0.281343 -0.331477 0.027677 0.087559 -0.037103 -0.053422 0.458334 -0.160641 -0.780330 0.148762 0.458010 0.050891 -0.576404 0.835356 -0.076689 0.172752 -0.051556 -0.485289 -0.401305 0.032261 -0.052728 0.071402 0.030933 0.500006 -0.406868 -0.475443 0.094775 0.056109 -0.095910 0.015613 0.039859 0.034515 0.749048 -0.255280 0.577550 0.013365 0.372114 0.579286 0.244879 -0.288660 0.244440 -0.590237 -1.031408 -0.441752 0.334792 0.058520 0.068398
خپلو 1.208956 0.128640 0.143104 0.391111 -0.215950 -0.209374 -0.663146 0.478469 -0.237824 -0.295036 -0.328930 -0.388314 0.112482 -0.086426 0.253093 -0.396163 0.352732 0.271077 0.151975 -0.101884 -0.195256 -0.151680 -0.424966 -0.848622 -0.377965 0.208076 -0.402753 -0.154296 -0.111790 -0.036131 -0.368129 -0.184365 -0.043892 -0.524418 0.083731 0.466684 0.195755 -0.105301 -0.309693 0.210952 -0.011434 0.171695 -0.030487 0.161559 0.213152 -0.377222 0.535817 0.204479 0.291971 0.086553
نړیوال 1.246306 0.163696 -0.187426 0.170919 0.910326 -0.592946 -0.315552 0.044918 -0.025702 -0.116930 -0.388448 -0.119093 0.294689 0.318226 0.087579 -0.385357 0.197015 0.349386 0.051595 -0.186713 -0.248769 -0.237957 -0.715436 -1.456011 -0.511756 0.644236 -0.387535 0.510360 0.111753 -0.109047 -0.863960 0.306053 -0.295081 0.103735 -0.219547 0.026651 -0.696254 0.169504 0.363718 -0.996373 0.189206 0.553277 0.363494 0.250330 0.815138 0.763772 -0.592428 0.341316 -0.392901 -0.733707
ورځ -0.035502 -0.021458 0.431794 -0.761763 -0.289877 -0.153299 -0.322731 0.275447 -0.643414 -0.114994 -0.457608 -0.157226 0.783464 0.268918 0.442917 0.295789 0.568836 0.470460 -0.031102 0.111859 0.582730 -0.300952 -0.199062 -0.382464 -0.444670 -0.172261 0.308799 0.473829 0.555797 -0.556270 0.391561 0.481720 0.895187 0.385201 0.073298 -0.403598 -0.410354 -0.004075 0.062739 0.101946 0.065271 -0.070510 0.545236 -0.482274 0.322072 -0.170730 -0.302419 0.453783 -0.062709 0.223674
ولسمشر 0.820481 0.152635 0.477442 0.572944 0.424523 0.618001 0.171118 0.086453 0.868987 -0.212226 -0.118874 1.160327 -0.379745 -0.373512 -0.076417 -0.761812 0.354401 -0.045256 0.465771 0.133501 -0.248090 -0.361512 -0.059142 -0.718397 -0.576536 -0.450304 -0.617061 -0.354997 -0.201275 0.400460 0.148681 -0.265023 -0.421138 0.400768 0.322533 -0.021859 -0.150193 0.148677 -0.354299 -0.807003 0.555493 -0.240224 -0.185057 -0.015941 -0.123964 -0.626857 0.165127 -0.030630 -0.554846 -0.366216
پاکستان 0.629925 -0.016663 0.457294 -0.330918 0.178027 0.102887 -0.019487 -0.089164 0.141212 -0.425911 -0.644155 0.444202 0.696213 -0.400488 0.098443 -0.416412 0.240250 0.625327 0.122433 0.100128 -0.351989 -0.542352 -0.463664 -0.755454 0.375818 0.259939 -0.396211 -0.150325 0.590071 0.123605 0.142829 0.042519 0.140444 0.053262 -0.021872 -0.249278 -0.548062 0.183693 0.878466 -0.214364 -0.310333 -0.331003 -0.066129 -0.770240 0.313198 0.602470 -0.319287 0.266211 -0.453338 -0.054218
پیل -0.212244 -0.533216 0.108121 -0.472787 -0.586039 -0.318976 0.070737 -0.284446 -0.737005 0.388216 -0.186028 -0.802464 -0.220708 -0.293137 -0.581015 -0.290939 -0.197789 0.535633 0.227469 -0.117359 -0.266888 0.086724 -0.944331 0.296193 0.462680 0.138726 -0.272077 0.118346 -0.576376 -0.126042 -0.082066 0.181992 0.221604 0.023186 -0.364825 -0.140519 -0.482599 -0.128600 0.238119 0.158180 0.497033 0.140587 0.004100 -0.613484 -0.331357 0.069955 0.230942 -0.586967 0.302073 0.211678
چارو 1.243632 -0.566189 0.217939 0.467978 0.630672 0.475891 -0.546241 0.447502 0.347649 -0.629916 -0.443685 0.344818 0.045763 -0.224247 -0.257205 -0.392323 0.034408 0.776162 0.611755 0.328224 -0.534642 -0.014662 -0.137002 -0.778251 0.899635 0.377959 -0.623331 -0.475302 0.196227 0.425286 -0.511954 -0.872992 -0.502964 -0.556535 0.618977 0.081422 -0.005438 0.104904 0.289614 0.668186 -0.636640 -0.384521 0.038552 -0.524027 1.114171 0.713224 0.354840 0.422051 -0.509662 0.070679
ښاغلی 0.477686 0.442822 0.041211 0.597701 0.038154 0.115634 0.346685 -0.523182 0.413822 -0.387396 0.290003 0.849330 0.351476 -0.039723 -0.450516 -0.509785 0.037509 -0.224438 0.086237 0.537165 -0.842767 -0.433187 -0.246483 0.602025 -0.170427 0.005749 -0.549829 -0.536809 0.044462 -0.287138 -0.101067 -0.205812 0.071784 0.051084 -0.131701 0.177610 0.361183 0.611734 0.682486 -0.491111 0.456052 -0.036192 0.530740 -0.050231 0.059157 -0.802846 -0.345889 0.138662 -0.377223 0.132851
کاله 0.271554 -0.279300 -0.366658 0.006180 0.066640 -0.179557 -0.574292 0.857959 -0.583955 0.511057 -0.488872 -0.403979 0.020169 0.176997 -0.243460 0.019336 0.293867 0.221983 0.281199 -0.063976 -0.333481 -0.634387 0.701402 -0.314613 0.172188 0.026494 0.241382 0.696004 0.431240 -0.489201 0.837917 0.175029 0.431810 0.021466 -0.346873 -0.577520 0.339094 0.065335 -0.077629 0.471189 -0.346825 0.427949 -0.562889 -0.396088 -0.267866 -0.853082 -0.392360 0.137262 -0.651685 0.303730
کرېکټ 0.232191 0.378053 0.570897 0.191372 0.406709 -0.131930 -0.632016 -0.052100 -0.077076 0.035363 0.344701 -0.068688 0.671779 -0.557225 -0.078821 -1.183940 -0.167640 -0.134322 0.136829 -0.138663 0.857171 0.263881 -1.302364 -0.552363 -0.052463 0.730116 -0.698721 0.019880 0.047675 0.032093 -0.709576 0.180417 0.128988 -0.102627 0.476364 0.041458 -0.561004 -0.005546 0.692931 -0.464974 -0.053538 -0.333504 0.720314 -0.455891 0.930923 1.264350 0.000103 -0.005962 -0.614047 -0.421693
* 0.134089 0.320592 0.071716 -0.029629 0.081995 0.079267 0.042997 0.399854 0.350582 0.096479 0.337542 -0.148251 0.017058 -0.289421 -0.405532 -0.232368 -0.416304 -0.389274 0.333751 0.111100 0.199776 0.141383 0.108170 0.198250 -0.069647 -0.055550 -0.393298 -0.076751 0.003350 -0.085348 0.215503 -0.070170 -0.054789 0.175516 0.273586 -0.290423 -0.041829 -0.090811 0.038759 0.115100 0.045350 -0.232050 0.452420 -0.075242 -0.105234 0.278949 -0.117600 -0.042646 -0.435831 0.196766
ازمیښتونو 1.300974 0.354726 0.433873 0.521926 0.465172 -0.192746 -1.161486 1.352566 -0.317885 -0.747190 -0.259863 0.034765 0.357058 -0.485028 -0.273897 -0.351834 0.228685 0.189639 0.248521 0.515887 -0.762009 -0.138005 -1.271774 -0.826804 -0.636253 0.143914 -0.582602 0.597244 0.332678 -0.222542 -0.414116 -0.014496 0.032349 0.006156 0.089879 -0.341426 0.111351 -0.217414 -0.152836 0.221654 -0.377674 0.062862 0.276726 -0.184498 0.773077 -0.014819 -0.064464 0.050601 -0.393554 0.112509
جوړ -0.399325 -0.224339 0.355403 -0.772403 -0.392245 -0.020637 -0.063545 -0.135421 -0.389394 0.206454 0.350894 -0.648438 0.308737 -0.423055 -0.471536 -0.217672 -0.753121 0.216140 -0.431742 -0.439490 0.114508 0.420166 -0.852111 0.481884 0.106882 0.123654 -0.216661 -0.491008 -0.993061 0.120829 -0.061151 0.320493 -0.154046 0.158749 0.281282 0.559854 -0.193927 -0.932624 0.146365 -0.156948 0.207738 -0.258752 0.011963 -0.029583 -0.235950 -0.036215 0.523372 -0.127802 0.158171 -0.048719
دغو 0.698474 0.650898 0.200288 0.388740 0.025999 -0.191725 0.042519 0.403961 -0.119650 -0.336870 0.001749 -0.038940 0.132732 -0.690062 -0.404103 -0.114742 -0.056336 -0.144301 0.064564 0.261278 -0.138422 0.009894 -0.979178 -0.389203 -0.205211 0.117356 -0.400734 0.496868 0.247434 -0.356935 -0.479197 0.069404 0.037559 -0.272532 -0.223842 -0.219789 0.106951 -0.030136 0.125874 0.046884 -0.295503 0.163968 0.134949 0.048549 0.458506 0.159135 0.023157 -0.115025 -0.097781 0.018241
زوی -0.136182 0.012962 0.224707 -0.134746 0.244397 -0.306732 -0.052245 -0.089576 -0.502906 0.027977 0.280256 0.035643 1.061249 -0.947883 -0.702927 -0.426743 0.136800 0.060264 0.151555 0.318746 0.132558 -0.169378 -0.871813 -0.108748 0.142676 0.003500 -0.159579 0.532948 0.149465 -0.294377 -0.411281 0.215296 0.127840 0.208633 -0.276258 0.114437 -0.347912 -0.223789 0.955110 -0.371401 -0.399144 -0.313838 0.072274 -0.497804 0.309148 0.126064 0.162643 0.287860 -0.839024 0.304203
سیمو -0.031523 -0.165689 0.460860 -0.061650 0.569746 -0.018825 0.251966 -0.271325 -0.348365 0.220083 -0.707420 0.351579 -0.295624 -0.271766 -0.201459 -0.522993 0.306749 0.028563 -0.068788 -0.101904 -0.287236 -0.380210 -0.348179 -0.651788 0.466023 0.226676 0.140588 0.772673 0.901523 -0.143186 0.041628 0.505131 0.429589 0.345744 -0.566269 -0.059623 0.036638 -0.677711 0.630143 -0.493562 -0.026511 -0.147031 0.071545 0.015816 0.268893 -0.191558 -0.397603 -0.192514 -0.481191 -0.697080
شرکت 0.602428 -0.051468 0.067332 -0.383364 0.821605 -0.125824 0.289652 0.817648 -0.137551 0.147024 -0.149799 -0.308406 0.608713 0.054930 -0.424001 -0.472806 0.046146 -0.277187 0.340256 0.074175 -0.329991 -0.470180 -0.197839 -0.870686 -0.717674 -0.400846 -0.193202 0.765474 0.341514 -0.076541 -0.614435 0.216984 -0.094891 0.294847 -0.143094 -0.185648 -0.426808 0.358465 0.258151 -0.118866 -0.043223 -0.050131 0.132853 0.406109 -0.000352 0.180057 -0.506404 0.630857 -0.654498 -0.310653
شو. -0.190355 0.114902 0.331402 -0.425976 -0.402627 -0.470660 -0.095518 -0.047010 -0.328847 0.082000 -0.073998 0.218495 0.504759 0.150024 0.157454 0.053960 -0.505345 0.121577 -0.042133 -0.135634 -0.120449 -0.202002 -0.491396 0.348832 -0.484245 -0.109590 -0.412170 -0.135771 0.316207 -0.625000 -0.032451 0.168878 0.584032 -0.102350 -0.093195 -0.348182 -0.023023 -0.239587 0.125797 -0.634999 0.130777 0.105162 0.359895 -0.036377 -0.015437 0.177743 -0.035545 0.170414 0.209352 -0.210007
عراق 0.236233 -0.508094 0.196350 -0.030469 0.255765 0.264514 0.333488 0.119396 -0.384052 0.318967 -0.073659 0.128763 0.409503 -0.554495 -0.108329 -0.498639 -0.204974 -0.127186 0.351494 0.136148 0.038979 -0.295782 -0.215963 -0.503183 0.097774 0.083721 -0.500704 0.583848 -0.124759 0.444659 -0.154711 -0.398882 -0.002888 0.136754 -0.160724 0.379794 -0.144252 0.362629 0.183810 -0.041931 0.123571 -0.372277 0.068627 -0.346018 0.078124 -0.224717 0.048123 0.513224 -0.731759 0.010271
محسن 0.327798 -1.134494 0.510390 0.120070 0.461343 0.052300 -0.897191 0.272934 -0.073443 0.497835 -0.123368 -0.897194 -0.350607 0.159756 -1.069815 0.152146 -0.122107 0.385751 0.227050 -0.614557 -0.303926 0.192483 0.361768 -0.154878 0.610316 0.045192 0.431277 0.524326 -0.352792 0.433534 0.563515 0.167736 0.144923 0.928559 0.754659 0.060952 -0.330254 -0.343760 0.560000 0.545580 0.300529 0.287691 0.400535 -0.137359 0.142258 0.295994 -0.025944 -0.641471 -0.249894 0.372314
موني 0.245505 0.474285 0.050450 0.455169 -0.248331 -0.058003 0.488325 -0.282674 0.150006 0.072780 0.223992 0.521492 0.328584 0.035587 -0.330758 -0.409843 0.350413 -0.191183 0.097864 0.368460 -0.621117 -0.564376 0.074749 0.689049 -0.016577 -0.137896 -0.013908 -0.346592 0.099962 -0.419638 0.308917 -0.117720 0.196744 0.097254 -0.098116 0.162363 0.533005 0.556836 0.879732 -0.231100 0.554984 -0.039359 0.369067 -0.063889 -0.225059 -1.149897 -0.544777 0.149976 -0.380558 0.139695
هلته 0.221045 -0.495734 -0.062946 -0.002758 0.088239 -0.405703 -0.126976 0.028099 -0.302861 0.052131 -0.203876 -0.297705 0.659130 0.154524 -0.304024 0.298174 0.167478 0.372695 0.043970 0.130939 -0.524549 -0.301185 -0.249044 -0.245961 0.252276 -0.069233 0.023185 0.428277 -0.587423 0.219700 0.353591 0.015237 0.103329 0.308782 -0.054497 0.125466 -0.455975 0.253914 0.615508 0.262047 0.299708 -0.015881 0.244465 -0.588478 -0.041563 -0.124460 -0.074113 -0.124232 -0.038285 0.213321
ور -0.482579 -0.307877 -0.247226 -0.099292 -0.635353 0.030620 0.236822 -0.170014 0.078779 0.238554 0.313713 -0.698498 -0.056402 -0.087649 -0.061836 0.012621 0.124781 -0.370090 -0.050566 0.012966 0.148125 0.460068 -0.414606 0.489020 0.455014 -0.087089 0.812207 -0.233533 -0.527779 0.139408 0.501597 0.082991 -0.037156 0.285025 0.350944 0.753701 -0.364722 0.125420 -0.016635 0.592711 0.425520 0.033330 0.013893 0.228841 -0.440782 -0.419617 -0.045408 -0.539393 0.312280 0.218271
وه. 0.251389 -0.172159 -0.057153 -0.137122 0.081147 0.160455 0.144211 0.134416 -0.151833 0.235995 -0.125975 -0.304040 0.054399 -0.577840 -0.632862 -0.790510 0.388129 -0.189956 0.216780 -0.025381 0.321856 -0.212579 -0.262452 -0.408942 -0.224874 -0.062733 -0.265338 0.098211 -0.177263 -0.112515 -0.498770 0.098382 -0.347081 -0.117430 -0.279955 0.106508 -0.010893 -0.202418 -0.404727 0.118371 0.328043 0.033822 0.064598 0.229807 0.053186 -0.220246 -0.155487 0.508300 -0.382093 -0.022228
وړاندې 0.277974 -0.525069 -0.293602 -0.335595 0.157143 0.491447 -0.226693 0.369296 -0.432722 0.218574 -0.380768 -0.786449 -0.260474 -0.284514 -0.442556 -0.374560 0.045408 0.198836 0.001333 -0.054512 -0.288335 -0.233031 -0.863986 -0.613564 0.234465 0.389285 0.117546 0.441582 0.113699 0.286953 0.033558 0.006677 -0.047988 0.221316 -0.170688 0.434178 -0.434220 -0.195022 -0.004915 0.211782 0.452015 0.343872 -0.289608 -0.046705 -0.197557 -0.264771 -0.122242 -0.174683 -0.161951 -0.315591
وکړي. 0.092540 0.129840 0.222122 0.435211 0.130940 -0.253993 0.539770 0.425407 0.245978 0.381998 0.192875 -0.227864 -0.017511 0.506559 -0.398367 -0.294969 -0.067239 -0.836166 0.345754 -0.039338 -0.110388 0.195240 -0.088341 0.318643 -0.098458 -0.315738 0.409714 0.172385 -0.387404 -0.016011 0.280862 0.109202 -0.040499 0.325616 0.482264 0.211989 -0.407530 0.219696 0.072505 0.236307 0.015331 -0.242825 0.487698 0.325027 0.200157 -0.302707 -0.343382 -0.011252 -0.068378 -0.380054
ویلي 0.185944 -0.306925 -0.134513 -0.107663 -0.216540 -0.343106 -0.178457 0.008710 0.119437 -0.295025 0.271005 -0.544552 0.900436 0.150865 -0.912342 0.010207 0.262997 -0.562953 0.249281 -0.024196 -0.293077 -0.372019 0.457209 -0.141563 -0.526829 -0.354734 -0.158536 0.112648 -0.746936 0.540404 0.023174 -0.443039 0.146307 0.075469 0.484848 0.523650 -0.596673 -0.200355 -0.295078 0.162596 0.040472 -0.387734 0.648525 -0.109807 0.432701 -0.278592 0.420036 -0.126960 0.070092 -0.209006
وینا -0.262227 0.199512 0.622584 -0.188564 -0.267524 -0.030040 0.014413 0.264981 -0.578820 -0.126207 0.175442 0.066897 0.382127 -0.690471 -0.146841 -0.661540 0.250381 -0.388535 0.524007 0.242591 -0.065659 -0.542651 -0.106303 -0.024490 -0.150234 -0.311482 -0.474451 0.552157 -0.165286 0.274085 0.182114 0.182458 0.556489 0.188074 -0.056221 0.349697 0.275018 -0.446729 -0.026533 0.094151 -0.165370 -0.890552 0.302245 -0.255318 0.236749 -0.496949 0.066438 0.420564 -0.580232 -0.110953
پوځ 0.181000 0.366535 0.623384 0.102323 0.170174 -0.032388 -0.148723 0.098508 0.037358 -0.175957 0.446315 0.122162 0.770501 -0.226009 0.068459 -0.791040 0.270961 -0.062466 0.258805 0.491805 -0.127348 -0.530073 -0.246441 -0.410740 -0.376200 0.079201 -0.267310 -0.199275 0.173227 0.722159 -0.160842 -0.240193 0.406355 0.373502 0.408625 0.458903 -0.577664 0.088706 0.825301 -0.384706 -0.115743 -0.799841 0.599177 -0.062104 0.555327 -0.389795 -0.016802 0.442247 -0.442712 -0.028312
ژوند 0.426125 -0.389366 -0.342777 -0.199163 0.345727 0.165735 -0.062046 -0.033106 -0.007714 -0.196152 -0.451650 -0.087489 0.608431 0.125850 0.202148 -0.105940 0.257338 0.423353 -0.223642 -0.283602 0.242510 -0.413835 -0.279651 -0.858483 -0.457253 0.162230 -0.050181 0.287452 0.168642 0.175365 0.102801 -0.010817 -0.072849 0.064975 0.088171 0.190603 -0.366391 0.422626 0.190800 0.001223 0.330132 0.098246 0.077746 -0.326710 -0.079234 0.312865 -0.192907 0.555643 -0.163283 -0.030118
ښايي 0.158481 0.507244 -0.007804 0.206210 -0.179112 -0.249427 0.062548 -0.053591 0.242169 -0.514896 0.490548 -0.062636 -0.001946 -0.286832 0.048626 -0.156459 -0.838565 -0.663482 -0.209806 0.025624 -0.480221 0.180446 -0.457495 0.574013 -0.336286 0.019122 -0.249337 -0.219106 -0.661882 0.420006 0.404026 0.051945 -0.223732 0.130912 -0.154089 0.277361 -0.131730 0.204834 0.068588 -0.552807 -0.104433 -0.748557 -0.133842 -0.252952 0.026684 -0.468366 0.024866 -0.235595 -0.021616 -0.234056
اسراییل 0.197152 -0.107237 0.089295 -0.117910 -0.109907 -0.227535 -0.120027 -0.194256 -0.262449 0.129197 0.380880 -0.281685 0.387450 -0.252112 -0.088403 -0.364416 0.051222 -0.326130 0.067582 -0.057932 0.289619 -0.023498 -0.389609 -0.103818 -0.445024 0.020214 -0.214475 -0.137241 -0.598369 0.239091 -0.472980 0.018299 0.089116 -0.120871 0.132446 0.547626 -0.505584 -0.090912 -0.570830 -0.441444 0.232387 -0.059634 0.313048 0.597020 0.003359 -0.127112 0.239284 0.461585 0.233019 -0.487490
اسیا 0.110573 -0.564758 -0.441790 -0.062057 0.047354 0.236441 0.023360 0.369664 -0.366182 0.443023 0.330835 -1.278726 0.044910 -0.379957 -0.276779 -0.723228 0.631596 -0.573566 0.402791 0.103703 -0.041784 -0.269799 -0.044405 -0.733733 -0.530680 -0.007757 -0.297991 0.426663 -0.300626 0.504119 -0.795197 -0.399015 -0.067116 0.211893 0.452829 0.795244 -0.038422 0.057167 -0.394843 0.313107 0.558767 -0.126721 -0.007023 0.522322 -0.310481 -0.346995 0.066211 0.340804 -0.012773 0.462848
اټومي 1.343118 0.454580 0.419127 0.706716 0.016372 0.104632 -0.846897 1.088108 -0.106711 -0.373157 -0.355774 -0.164505 -0.069938 -0.477924 -0.192451 -0.345461 0.000935 -0.158576 0.369275 0.282568 -0.340690 -0.062463 -0.467581 -0.858384 -0.190457 0.194951 -0.559078 0.227626 0.540746 -0.161099 -0.294921 -0.215826 0.097972 -0.265257 -0.017364 -0.391602 0.399819 -0.405300 -0.399081 0.390329 -0.274602 0.099578 0.027109 -0.012711 0.468271 -0.194957 0.281822 0.034041 -0.072618 0.094558
تشناب -0.338810 -0.453601 0.489035 -0.902387 0.138252 0.033407 -0.026641 0.009667 -0.313052 0.276422 -0.467356 -0.132691 0.179068 0.074239 0.076521 0.158837 -1.050200 0.572857 -0.506528 -0.399305 -0.148489 0.040728 -0.723197 0.006313 0.006192 0.158411 -0.067226 0.085117 -0.117439 -0.152840 0.386318 0.534467 0.159335 0.569667 -0.008285 -0.139797 -0.503371 -0.442581 0.602363 -0.338883 0.236607 -0.061924 0.045825 -0.540191 -0.406423 0.409927 -0.055843 -0.253550 -0.018748 -0.212085
درې -0.035721 -0.310466 -0.317876 -0.046047 -0.112594 -0.502623 0.373617 0.150240 -0.584910 0.556281 -0.381858 0.186574 0.264875 -0.012824 0.181935 0.291510 -0.312233 0.122411 -0.145788 -0.206368 -0.040608 -0.150711 0.092920 -0.087303 0.218747 -0.242111 0.105768 0.555023 -0.037725 -0.282301 0.373555 0.308100 -0.044128 0.007341 -0.735330 0.241523 0.220377 0.387937 0.200864 -0.240819 -0.168854 0.023527 -0.199637 -0.157732 -0.272778 -0.437066 0.281358 0.224531 -0.113870 -0.039743
روغتون 0.520913 -0.355342 0.175968 0.042809 0.358419 0.300050 0.005757 0.293095 0.008092 -0.178327 -0.241884 0.172261 0.535186 0.047166 -0.362218 0.266035 -0.516036 -0.035807 0.002478 0.415207 0.019472 -0.306562 0.481349 -0.004635 -0.239956 -0.301557 -0.385226 0.192181 0.048426 -0.103876 0.159733 -0.141940 0.124314 0.383611 -0.170557 -0.872978 -0.475654 0.157632 -0.385383 -0.269411 0.029680 -0.707018 0.557448 -0.745745 0.499588 -0.180806 -0.317693 0.330845 -0.264444 -0.078519
شمېر -0.068419 -0.800958 0.696632 -0.298936 -0.183578 0.045492 -0.534086 0.425374 -0.620197 0.260511 -0.568555 0.156639 0.370092 -0.110587 0.255053 0.064463 -0.210096 0.522912 -0.144063 0.060966 -0.174706 -0.169106 0.016021 -0.121729 0.476110 -0.161231 0.047877 0.485648 0.442281 -0.415957 0.009841 -0.027358 0.327819 0.054361 -0.100984 0.206342 0.491117 -0.285141 0.351898 0.483607 -0.149874 0.011740 -0.255132 -0.276686 0.285570 0.380903 0.081237 0.130073 -0.083903 0.351093
علي 0.658486 -0.645736 0.319969 0.298702 0.491879 -0.254345 -0.386084 0.388290 -0.439864 -0.056434 -0.376791 0.079295 -0.745147 0.000305 -0.579113 -0.172393 -0.296053 0.032087 0.324558 -0.033552 -0.825050 0.406736 -0.209801 -0.143079 0.712981 0.210214 -0.309380 0.603506 0.080890 0.292611 0.140551 -0.397083 -0.118002 0.223280 0.050136 0.294415 0.406350 -0.494063 0.045373 0.280506 -0.357934 -0.280951 0.330041 -0.496150 0.624110 0.321242 0.517767 -0.634206 -0.324895 -0.323750
لارې 0.225545 -0.237148 -0.097527 0.215317 -0.102571 0.141146 -0.260747 0.652092 -0.014102 0.060780 -0.140198 -0.392873 -0.251389 0.129565 -0.028888 -0.072008 0.428096 -0.200251 0.392153 -0.091534 -0.137135 0.138601 0.106705 -0.246727 -0.017462 -0.103527 0.334784 0.114166 -0.007838 -0.010346 0.160501 -0.185088 0.009309 -0.028922 0.162956 0.196812 0.138954 -0.078507 -0.712780 0.492284 -0.029336 0.288934 -0.077023 0.526923 -0.142463 -0.587970 0.008059 -0.041993 -0.234516 -0.146680
نړۍ 0.635625 -0.005426 -0.074852 0.352535 0.672691 0.498698 -0.494266 0.554763 0.281502 -0.194980 0.095303 -0.494705 0.100609 -0.536825 -0.452698 -0.520195 0.372417 -0.447886 0.321310 0.335037 0.285463 -0.135361 -0.410335 -0.893371 -0.072702 0.058698 0.115427 -0.005333 -0.252437 0.493024 0.367681 -0.228363 -0.213459 0.605653 0.538537 0.072712 -0.732778 -0.123664 -0.480273 0.042411 0.200459 -0.259024 0.239501 -0.239402 0.211242 -0.346065 -0.253771 -0.087355 -0.331248 -0.107967
وه، 0.206447 -0.004286 0.280841 -0.014120 0.002781 0.090362 0.538066 0.112272 0.091940 0.125195 -0.024229 -0.244058 0.125210 0.118154 -0.225600 0.309355 0.031388 -0.233370 -0.099221 0.519764 -0.768090 0.072118 -0.042963 0.430434 0.052667 -0.428532 0.159633 -0.049244 -0.427106 -0.211526 0.189955 -0.229219 -0.145953 0.434277 -0.097507 0.014791 -0.114286 0.744936 0.256616 0.190857 0.438860 -0.077427 0.089659 0.127585 -0.271621 -0.651895 -0.608984 0.062661 -0.011885 0.362117
ټرمپ 0.538354 -0.267183 0.158848 0.400150 0.198325 0.368844 0.219261 -0.001750 0.262156 -0.011093 -0.315185 0.816770 0.005159 -0.047249 -0.337171 -0.071458 -0.036695 0.267891 0.164141 0.453738 -1.014320 -0.271258 -0.143699 0.072715 0.373941 -0.323261 -0.224173 0.037014 0.121836 -0.434094 0.213455 -0.518214 -0.076641 0.467634 -0.183009 -0.257170 0.273986 0.517104 0.591713 -0.269350 0.441259 0.130883 0.058884 -0.381126 -0.247457 -0.683311 -0.337960 -0.159160 -0.377177 0.294293
ټولو 0.032348 -0.604813 0.484140 -0.039860 0.278926 0.185990 -0.545577 0.196583 -0.256195 0.198158 -0.439407 -0.268905 -0.784338 -0.081948 0.393632 0.018409 -0.274856 0.349676 0.487446 -0.281648 0.010016 -0.033199 0.048789 -1.002541 0.824848 0.337238 -0.167080 0.278991 0.052842 0.563386 0.312851 -0.180917 0.239120 0.215343 0.256474 -0.214293 -0.220273 -0.372021 -0.209487 0.113746 -0.369728 -0.153163 -0.261392 -0.223539 0.338690 0.267616 0.035895 -0.664892 -0.126562 -0.337957
ځای 0.001394 -0.373545 -0.070364 -0.414957 -0.149145 0.107609 -0.208787 0.204398 -0.343580 -0.052195 -0.180214 -0.440233 0.467514 -0.069224 -0.052992 -0.477359 0.381441 0.169388 -0.037445 -0.054283 0.323641 -0.503882 -0.187896 -0.462172 0.010902 0.317034 0.025895 0.279584 0.160021 0.207325 0.381735 0.262498 0.396736 0.124398 0.140062 0.031845 -0.435198 -0.014612 0.166276 0.402418 0.146832 -0.225012 0.056414 -0.484611 0.000049 0.112075 -0.377699 0.026366 -0.375643 -0.100264
ځینو 0.132231 0.116475 0.697713 0.041784 0.410708 0.106487 0.272967 0.113312 -0.219531 0.133921 -0.490848 0.410094 -0.680486 -0.129292 -0.057798 -0.554758 0.543848 0.295837 0.067298 -0.423932 -0.194045 -0.377879 -0.570665 -0.902047 0.311935 0.200716 0.053827 0.467461 0.275038 -0.019786 0.171039 0.557305 0.136976 0.419167 0.048634 -0.106628 0.072376 -0.779764 0.063445 -0.330334 0.492106 0.163472 0.309169 0.472180 0.185265 -0.102922 -0.639724 -0.312484 -0.440827 -0.711632
الجزایر 0.123400 0.053316 0.145439 -0.219338 0.166668 0.028585 0.128681 0.028990 -0.188746 0.174433 -0.555505 0.012843 0.022750 0.004531 -0.090013 -0.331773 0.109539 -0.027205 0.203203 -0.291876 0.000197 -0.516888 0.115778 -0.413215 -0.049836 0.036431 -0.161431 0.539631 0.368721 0.082458 0.764689 0.252621 0.335438 0.175882 -0.069198 -0.272472 -0.142978 -0.066086 0.119840 -0.138856 0.171772 -0.162385 0.261091 -0.253651 0.039738 0.012631 -0.326724 0.084487 -0.276906 -0.617081
امله 0.291930 -0.311793 -0.233264 -0.125594 0.265746 0.294998 0.118782 0.338237 -0.042500 -0.145926 -0.307106 -0.316401 0.110462 -0.037946 -0.158565 -0.083970 0.365104 -0.564903 0.050415 0.416710 -0.435178 0.080758 -0.439211 -0.232312 -0.491510 -0.359174 0.205654 0.245713 0.066299 -0.076446 -0.163411 0.087393 -0.182028 0.450729 -0.054134 0.361571 0.039872 0.125266 -0.509624 0.082821 0.377901 -0.027798 0.282622 0.612951 -0.342567 -0.783652 -0.348645 0.167661 -0.158596 -0.287955
برخه -0.077497 -0.226978 0.135490 -0.237122 0.058724 0.309928 0.122211 0.179082 -0.579888 0.342131 -0.346697 0.162081 -0.431497 -0.325377 -0.083799 -0.180545 -0.020494 0.167415 -0.415757 0.014217 -0.083965 -0.284808 -0.498472 -0.242175 -0.060148 0.316660 0.063766 0.407473 0.284610 -0.097754 -0.145002 0.300817 0.046559 0.353491 -0.168506 0.014096 0.122348 -0.482734 0.062396 -0.221619 0.170520 0.142381 -0.064293 -0.103881 0.240615 -0.111651 -0.201580 -0.196110 -0.217972 -0.126578
بند 0.255674 0.524914 -0.034258 0.000887 -0.100863 0.001395 0.032557 0.109307 0.056406 -0.490805 0.157721 0.136411 -0.134393 -0.325667 -0.489383 0.322154 -0.070007 -0.367148 -0.152904 0.200554 -0.282181 -0.235224 0.203665 0.678937 -0.014284 -0.053845 -0.115850 0.189649 0.022144 -0.207342 1.379779 0.037158 0.051617 0.249686 0.084847 -0.341763 0.244828 0.156823 0.233475 0.107327 0.152346 -0.137648 -0.022118 -0.646813 0.205579 -0.207818 -0.574395 -0.769757 -0.238000 -0.035387
تېره -0.072860 -0.250208 0.325500 -0.150434 -0.093948 -0.121469 0.387984 -0.028769 -0.370075 0.270620 -0.139394 0.150164 0.204248 -0.340095 0.138720 0.220278 -0.100609 -0.431191 -0.357514 0.218519 -0.196015 0.100135 -0.030124 0.285943 -0.134608 -0.310598 0.214458 0.569829 -0.025080 -0.197536 0.016827 0.007728 0.002623 0.101864 -0.246926 0.878309 0.479139 -0.157997 0.119745 0.251606 -0.059771 -0.166746 -0.225050 -0.054633 -0.140683 -0.453349 -0.044535 0.020389 0.071667 0.164226
خان -0.244703 0.500137 0.553569 0.309175 -0.119509 0.039027 0.067054 -0.605515 0.172243 -0.503227 0.267166 -0.140838 0.578129 0.544980 0.460088 0.669237 -0.226125 0.100630 0.144102 0.843948 -0.540875 -0.032201 -0.007491 0.248845 0.481381 0.113511 -0.511977 -0.809780 -0.729477 -0.146376 -0.662993 -0.511666 -0.058301 -0.800558 -0.212293 -0.104808 -0.008301 -0.028130 -0.023882 -0.072328 -0.191891 -0.005778 -0.156672 -0.049919 0.488844 0.004264 0.231210 0.304135 0.620290 0.367197
سوريې 0.095354 0.147253 0.318835 0.157458 0.065373 -0.024449 -0.295340 0.037363 0.181078 -0.107047 0.215903 -0.025493 0.505122 -0.147926 -0.024242 -0.713197 0.277124 0.003654 0.433349 0.181916 -0.036486 -0.237127 -0.156853 -0.478063 0.112442 0.024847 -0.442397 -0.276577 -0.040543 0.572207 -0.150216 -0.308425 0.308994 0.034112 0.421099 0.151821 -0.557323 -0.073462 0.448368 -0.069448 -0.028731 -0.626743 0.592832 -0.150365 0.401129 0.007770 0.363341 0.193413 -0.285818 -0.071697
شو -0.030951 -0.171521 0.285285 -0.026335 0.200278 -0.142422 -0.144146 0.214771 -0.128236 0.048026 -0.133416 0.119164 0.112034 0.036670 -0.462860 0.104235 -0.098334 0.054647 0.158126 0.235756 -0.908847 -0.215713 0.207179 0.317177 0.144909 -0.273939 -0.440842 0.108232 -0.209701 0.243455 0.049063 -0.135942 0.295295 0.231861 -0.217573 -0.316609 0.057146 -0.187578 0.340090 -0.125544 0.047022 -0.337881 0.247954 -0.368949 -0.377121 -0.278499 -0.064495 -0.048008 -0.305547 0.011366
لږ 0.232846 -0.364141 -0.334532 0.166507 0.438727 0.366765 0.199743 -0.339324 0.085949 0.005168 -0.422793 -0.088887 -0.143399 0.694433 0.580431 -0.263657 -0.554700 -0.167115 0.297019 -0.045073 0.380443 0.194887 -0.514685 -0.376554 -0.338182 0.000217 -0.073025 0.065142 -0.225952 0.380942 0.137680 -0.172483 -0.257471 0.250879 0.291524 0.292702 -0.606389 0.845825 -0.786202 -0.123464 0.133058 -0.353963 0.099356 -0.178943 0.655844 -0.309518 0.547109 0.615096 0.424433 -0.362777
مخه -0.133186 -0.001104 0.092597 -0.064132 0.100093 -0.258284 0.210810 -0.204727 -0.152675 -0.130914 0.499342 -0.022368 0.334046 -0.471493 -0.550805 -0.161707 0.037307 -0.236296 0.063279 0.252414 0.384103 -0.028576 -0.180419 0.048338 -0.042733 -0.000845 -0.187816 0.357185 -0.387334 0.510761 0.024563 0.114446 0.107552 0.282498 0.118806 0.155987 -0.458920 0.065607 0.241115 0.320304 -0.057722 -0.450539 0.270898 -0.279621 0.407419 0.179762 0.189903 -0.087022 -0.263554 0.199582
مخې 0.258643 -0.490215 -0.078261 -0.045537 0.025298 0.388921 -0.030751 0.458303 -0.225025 0.531023 -0.063581 -0.676162 -0.122542 -0.128748 -0.091876 -0.509603 0.371183 -0.216316 0.472904 0.003441 0.201449 -0.054009 -0.243998 -0.586702 -0.005966 0.158000 0.217580 0.299353 0.116402 0.065447 -0.538181 -0.220065 0.077000 -0.008069 0.215274 0.549786 0.029912 -0.000753 -0.459536 0.590338 0.349751 0.289811 -0.028280 0.618510 -0.050120 -0.344444 0.073546 0.262362 -0.157742 0.050913
مېرمن 0.422568 0.078637 0.083063 -0.094512 0.167503 -0.187247 0.398249 0.250918 -0.404586 0.160452 -0.227695 -0.201903 0.164298 -0.129439 -0.060599 -0.432512 0.372865 0.187927 -0.047384 -0.311979 -0.091076 -0.628475 -0.388891 -0.751661 -0.492863 0.291231 0.122212 0.515231 -0.179378 0.266193 -0.101435 0.258172 -0.075614 0.206005 -0.102314 0.377272 -0.095790 0.020740 0.031703 -0.146051 0.455444 0.086195 0.015708 0.312050 0.018126 -0.453942 -0.683496 0.247610 -0.202907 -0.320633
نایک 0.483593 -0.267323 -0.143768 -0.275623 0.321346 0.249708 0.226841 0.740147 -0.216573 0.049644 -0.213098 -0.466740 0.158192 -0.072454 -0.037942 -0.432523 0.303157 -0.292244 -0.005470 0.129557 -0.159105 -0.411928 -0.312288 -0.621176 -0.440008 -0.171665 0.388457 0.558509 0.297962 0.007060 0.074423 0.252392 -0.082764 0.496082 0.100000 0.143917 -0.230767 0.371179 -0.014061 0.446729 0.346641 -0.050859 -0.080985 0.316161 -0.165546 -0.192582 -0.753235 0.126762 -0.413412 -0.168683
نور -0.077665 -0.470273 0.008048 0.191268 -0.138293 -0.419522 -0.282826 -0.115662 -0.028256 0.283453 0.145116 -0.242418 0.327613 0.307252 0.212670 -0.055898 -0.288175 0.176328 -0.051546 -0.259857 0.096744 -0.313815 0.345810 0.089202 -0.143386 -0.007776 -0.070753 -0.183663 -0.564299 0.619686 0.201134 -0.215441 -0.264653 0.055741 0.124095 0.883286 0.231397 0.283069 0.217444 0.480732 0.033946 -0.242104 -0.254981 -0.228067 0.046672 0.195431 0.469114 0.004908 0.283066 0.385798
وي، -0.152958 0.471862 0.087980 0.192910 -0.088137 -0.342988 0.268655 -0.196557 0.189347 -0.470853 0.225678 0.308796 -0.306945 0.218675 0.468765 0.172107 -0.275818 -0.134761 -0.282793 -0.240771 -0.312417 -0.170838 -0.260493 0.308309 -0.195277 -0.079125 0.071067 -0.237033 -0.486110 0.515337 0.866072 0.147351 -0.070339 0.185652 0.341610 0.408921 -0.099726 0.125889 0.034740 -0.099273 -0.045653 -0.402503 -0.016123 -0.151029 0.232106 -0.108220 -0.196019 -0.549604 0.299322 -0.217039
پاتې -0.227030 0.156600 -0.168432 0.141727 0.926093 -0.198689 0.659735 -0.113562 -0.190457 0.148838 0.163802 0.260094 0.697240 -0.500899 -0.335916 -0.533722 0.607108 -0.254296 -0.448998 0.332947 0.556120 0.131197 -1.048419 -0.013442 -0.168556 -0.247956 0.114493 0.474427 -0.171154 -0.505838 -0.550950 0.172349 -0.093569 -0.012658 0.181678 0.090990 -0.418128 0.039079 0.499213 -0.316206 -0.383408 0.199586 0.355767 -0.210659 0.945818 0.206229 -0.363807 0.311047 -0.369687 -0.351451
ځکه 0.144002 0.405056 0.213494 0.416402 0.259748 0.205460 0.056786 -0.171715 -0.078674 -0.327374 0.407335 0.192077 -0.016388 -0.571666 -0.205158 -0.670481 0.306307 -0.390978 -0.158340 -0.127874 0.339242 -0.274002 0.069802 -0.043114 -0.166866 0.099438 0.001125 0.097403 -0.245579 0.641254 0.254657 0.081677 -0.114350 0.206884 0.126039 0.701275 0.395587 -0.441623 -0.406110 0.017690 -0.089455 -0.675023 0.033913 -0.108615 0.394192 -0.446801 -0.020773 0.126098 -0.424721 -0.016812
څو -0.098539 -0.629617 -0.326678 -0.274633 -0.280230 -0.090086 -0.015104 0.242290 -0.754440 0.033429 -0.348041 -0.231038 1.074657 -0.065453 0.856928 0.574864 -0.490069 0.051142 -0.173302 0.165025 -0.016059 -0.464242 -0.155786 0.113111 -0.520065 -0.303571 0.106758 0.803972 0.477913 -0.348172 0.582096 0.003328 0.386001 0.159335 -0.527360 0.147911 -0.089425 0.597757 0.020152 0.060421 -0.162090 -0.035726 -0.374677 -0.519803 -0.364450 -0.488550 0.085450 0.631851 0.174190 0.120216
ډېره -0.273841 -0.189705 0.317873 0.179207 0.223928 -0.018136 -0.673119 0.049339 0.087690 -0.315868 0.426551 -0.298126 -0.008005 0.305123 -0.101783 0.247078 -0.325828 -0.317373 0.220441 0.238937 -0.252979 0.205929 -0.269133 0.195185 0.210379 0.112253 0.027641 -0.305257 -0.349840 0.650051 0.134597 -0.224922 0.052017 0.547597 0.503072 0.375428 -0.314740 -0.101908 -0.212015 0.368966 -0.318423 -0.289721 0.291794 0.302454 0.564047 -0.026208 0.264963 -0.219538 0.216182 -0.244834
ډېری -0.259181 -0.022185 0.349440 -0.235965 0.086320 -0.138132 0.126355 0.043832 0.008261 0.077019 -0.311201 0.252765 0.186739 0.443271 -0.348539 0.339125 -0.045450 0.087467 0.060519 0.283087 -0.727348 -0.299204 -0.227432 0.224827 -0.405543 -0.047888 -0.528055 0.108337 0.190769 -0.104458 -0.235531 0.275241 0.259818 0.382761 -0.454661 -0.126733 -0.057524 -0.057109 0.561353 -0.512666 0.307370 -0.097999 0.719580 0.240360 -0.319535 0.082044 -0.022961 0.108426 0.115375 -0.523316
کورنۍ 0.120854 -0.740208 -0.178695 0.006542 -0.047079 0.141416 -0.359006 0.531689 -0.529071 0.438321 -0.507117 -0.457224 -0.290317 -0.027576 0.034633 -0.123082 0.207383 0.162810 0.271245 -0.017524 -0.002390 0.286011 -0.172917 -0.409439 0.670495 0.037738 0.585331 0.619869 0.550285 -0.449420 0.178469 0.045238 0.139997 0.020368 -0.080330 0.178096 0.072789 -0.140913 -0.166077 0.688081 -0.174011 0.430266 -0.201466 -0.119626 -0.003154 -0.372444 0.122329 -0.272207 -0.358460 0.200998
کور -0.097051 -0.163147 0.273106 -0.243857 0.248756 0.138175 0.436647 -0.046565 -0.178249 0.008098 -0.369203 0.234460 0.599348 -0.065211 -0.064439 0.113465 0.112555 -0.272889 -0.155012 0.470112 0.076547 -0.163284 -0.658125 -0.324662 -0.195530 -0.168764 0.160986 0.470811 0.418701 -0.228176 0.066520 0.156108 0.191013 0.570807 -0.035610 -0.050595 -0.488867 0.172691 0.297964 -0.340480 0.269193 -0.110789 0.608502 -0.155537 0.343033 -0.052197 -0.179616 0.030057 -0.066388 -0.302243
کولای 0.099204 0.418213 -0.140233 0.016573 -0.368508 -0.426876 -0.025224 0.700714 0.248411 -0.591044 0.402955 -0.113961 0.587505 0.126664 0.393262 0.231920 -0.446526 -0.330709 0.252453 -0.067684 -0.532967 -0.350651 0.558218 0.374895 -0.434580 -0.631665 -0.117140 -0.250916 -0.447254 0.179753 0.996136 -0.151009 0.152900 0.059473 -0.101448 -0.541149 -0.253607 0.440161 -0.273729 -0.288089 -0.352233 -0.745378 -0.120988 -0.268600 -0.569190 -0.864388 -0.289728 0.262188 -0.511745 -0.069642
کړي. -0.249339 -0.099249 0.364030 -0.078990 0.267872 0.070498 0.134690 0.028479 -0.218474 0.357682 -0.144393 0.061077 -0.335739 -0.311412 -0.176249 -0.117371 -0.165795 -0.250197 0.079335 -0.285830 -0.126188 -0.182563 0.059118 -0.055926 0.271143 -0.062484 0.077179 0.474375 -0.051275 0.307529 0.602162 0.232900 0.114190 0.510588 -0.051330 -0.028777 0.048623 -0.335292 0.093217 -0.052414 0.090308 -0.298958 0.060645 -0.062069 -0.101655 -0.130607 -0.290432 -0.263202 -0.330514 -0.380892
کړ. -0.185627 -0.288152 0.382842 -0.046692 -0.288024 -0.141222 0.047629 -0.283315 -0.319233 0.314944 0.035783 -0.442876 -0.046865 -0.251855 -0.697741 0.088917 0.008779 -0.046935 0.185849 0.277677 -0.466418 0.135651 -0.377441 0.280568 0.491801 -0.036754 -0.041873 0.202296 -0.535758 0.048600 0.078799 -0.033239 0.237247 0.322643 -0.046927 0.191557 -0.157948 -0.264428 0.399822 0.048969 0.396412 0.032537 0.217150 -0.249858 -0.210980 -0.246578 0.132324 -0.501780 0.277687 0.216191
انټرنېټي 0.301696 0.108321 0.232317 0.224352 0.721691 -0.189190 -0.370614 0.038744 0.322348 -0.434777 0.054959 0.202563 -0.088665 0.097626 -0.142708 -0.059134 -0.349069 0.267102 0.144397 -0.136685 -0.170767 0.108926 -0.652612 -0.624350 0.160762 0.219141 -0.555101 -0.166365 -0.548676 0.491832 -0.097643 0.015633 -0.365591 0.159890 0.273101 -0.081960 -0.679968 -0.129712 0.038730 -0.556909 -0.153845 -0.158168 0.465704 -0.237521 0.501419 0.628756 0.129108 -0.226469 -0.158842 -0.534270
اړیکي -0.082221 -0.085466 -0.089701 0.079193 0.078827 -0.218619 0.295214 -0.108054 0.053667 0.072679 0.061771 -0.177758 -0.211294 -0.011717 0.260460 -0.072306 -0.267020 0.044708 0.170581 -0.146374 0.153675 0.324082 -0.513318 -0.374775 0.283971 -0.007321 0.150996 -0.198017 -0.680515 0.359208 0.123020 0.006494 -0.390998 0.248130 0.256601 0.382218 -0.559471 -0.033226 -0.143080 -0.088013 -0.060331 0.081150 0.022851 0.144628 -0.031356 -0.181086 0.257329 -0.062989 -0.031557 -0.099749
بلوڅ 0.719801 0.232391 0.078579 -0.173185 0.340644 0.495767 -0.390484 0.375889 -0.027487 -0.181314 -0.671061 -0.397563 -0.309729 0.171457 -0.141138 -0.626934 0.409991 0.235611 0.329460 -0.444081 0.219473 -0.526729 -0.088154 -0.667885 -0.647433 0.475172 -0.475420 0.299041 1.073627 -0.373131 0.246837 0.514158 0.467119 -0.523730 0.181935 -0.837574 -0.196042 -0.261453 -0.317145 0.108268 0.040974 0.251929 0.270826 -0.498054 0.417181 0.421965 -0.540143 0.219872 -0.242030 -0.679519
جامې 0.013694 0.460075 -0.137325 -0.464500 0.267925 -0.643357 0.004051 -0.025902 -0.427709 -0.180800 0.124390 0.061508 0.210467 -0.516110 0.125696 0.102282 -0.123335 0.340820 -0.123517 -0.375476 0.481296 -0.145132 0.101365 -0.089631 -0.880143 -0.405425 -0.351584 0.903106 0.025702 -0.322043 -0.319849 0.705382 -0.005904 -0.117565 -0.514616 -0.489508 0.217345 -0.177180 0.120367 -0.981233 -0.362986 -0.391082 -0.162026 -0.199301 0.040989 0.517949 0.038531 0.085117 -0.048293 -0.020599
حکومت 0.187331 0.115853 -0.172152 0.015228 0.130172 -0.242073 -0.237338 -0.028787 -0.101246 -0.528732 0.208383 -0.112830 0.382876 -0.296799 -0.278958 0.134212 0.348049 -0.204658 0.093166 0.141745 0.048431 -0.001914 -0.605749 -0.317598 -0.115263 -0.128143 -0.126460 0.097123 -0.499498 0.402567 -0.035628 -0.021062 -0.232202 0.144004 0.198201 0.311915 -0.417573 -0.146966 -0.202614 -0.133459 -0.020168 -0.255615 0.526579 -0.004112 0.540204 0.275459 0.141502 -0.065042 -0.017993 -0.263750
دغسې 0.572346 -0.081546 0.445327 0.291839 0.587994 0.051105 -0.665571 0.462844 0.268076 -0.533147 0.300246 -0.088935 0.542106 -0.100376 -0.183781 -0.074968 -0.290173 0.282414 0.501248 0.526406 0.171780 0.275283 -0.162838 -0.610185 0.123006 0.255754 -0.534592 -0.121524 -0.215176 0.159757 -0.534174 -0.133058 -0.203241 0.164705 0.355508 -0.525068 -0.653901 0.095154 -0.077312 0.199218 -0.450317 -0.332209 0.094185 0.020466 0.305305 0.255969 -0.087671 0.445153 -0.524939 0.363011
دواړو 0.579649 -0.304895 0.021447 -0.077198 0.497018 0.231845 -0.505748 0.441191 -0.190135 -0.449431 -0.106549 -0.082632 0.133963 -0.012339 -0.093584 0.138995 -0.592673 0.255255 -0.047139 0.401583 0.015100 0.467493 -0.494654 -0.186488 0.114043 0.203522 -0.144549 0.024145 -0.234395 -0.059153 0.113068 -0.053533 -0.375439 0.257396 0.132512 0.024311 -0.150790 -0.074336 -0.433712 0.229918 -0.192426 -0.181152 0.179890 -0.377806 0.338694 0.009917 0.229836 0.161809 -0.301223 0.350443
را -0.157878 -0.043320 0.336204 0.006119 -0.496862 -0.138430 0.072671 0.201466 -0.173578 0.435848 -0.033404 0.036484 -0.531012 -0.111676 0.264525 -0.117507 -0.214115 -0.000711 0.297089 -0.337905 -0.011660 0.163756 0.161370 -0.129874 0.293157 0.102684 0.066109 -0.028546 0.101619 -0.003534 -0.225652 -0.120544 0.126013 -0.265828 -0.257542 0.187486 0.293633 -0.135489 -0.312136 0.220492 -0.131557 0.141117 -0.178868 0.435969 -0.123211 -0.092464 0.276057 -0.041246 0.097887 0.013052
رسنیو -0.255396 0.063377 -0.073434 -0.048698 0.077868 0.124672 0.237686 -0.201855 0.159493 -0.145400 -0.054992 0.224923 0.033862 -0.309688 0.398831 -0.545738 -0.003250 0.212088 0.188577 -0.282374 0.728237 0.005063 -0.572001 -0.681628 0.261298 0.101569 -0.221668 -0.117422 -0.067521 0.422359 -0.204383 -0.033402 -0.166773 -0.320808 0.016513 0.196970 -0.445143 -0.004318 -0.206838 -0.005686 -0.138416 -0.231073 0.048548 -0.108593 0.560491 0.367197 0.559367 0.370922 -0.084095 -0.319318
سیمې -0.019679 0.345738 0.026395 -0.012660 0.024224 -0.223107 0.240366 -0.085954 0.061476 -0.183466 0.307762 -0.157152 0.394598 -0.208005 -0.234161 -0.157859 -0.189997 -0.127994 0.138193 -0.038721 0.000962 -0.139619 -0.103857 0.042106 -0.114587 0.045745 -0.125390 0.020472 -0.406907 0.306403 0.116937 0.062438 -0.032988 0.053292 -0.107450 0.171539 -0.231023 0.092720 0.215364 0.052478 0.216481 -0.303450 0.298406 -0.081480 -0.068427 -0.143968 -0.076332 0.139468 -0.208941 0.017785
شي، 0.113221 -0.068925 -0.146271 0.007647 0.175993 -0.062332 -0.260703 -0.123683 -0.355977 -0.267484 -0.102744 0.284753 -0.081207 -0.172998 0.008407 -0.066116 -0.200471 0.355624 -0.302052 -0.405140 0.385897 0.190077 -0.545183 -0.120596 -0.042176 0.161573 0.256010 0.199968 -0.295516 0.276629 0.294382 0.310990 -0.256884 0.197408 -0.013329 0.392724 -0.033395 -0.357853 -0.305747 -0.166328 -0.106594 -0.233156 0.064215 -0.384488 0.443864 -0.089866 0.340152 0.051324 -0.138377 -0.244432
لا 0.441216 -0.003196 -0.107655 -0.161639 0.009682 -0.158101 -0.100099 -0.294928 0.060658 -0.121916 -0.175077 -0.435651 0.308827 0.178817 -0.138151 -0.211102 0.415781 -0.036975 0.416621 -0.152794 0.278117 -0.000431 -0.362761 -0.550650 -0.483517 0.079067 -0.186440 -0.065331 -0.521838 0.126390 -0.294872 0.032445 -0.000582 -0.248115 0.249003 0.404819 -0.586658 -0.085740 -0.765584 -0.287581 0.307273 0.068813 0.575184 0.539945 0.394914 0.130842 0.290201 0.414542 0.384585 -0.711381
مې -0.408809 -0.160227 0.071908 0.042209 0.539420 -0.130289 0.057324 0.075672 -0.156997 0.055092 0.489577 0.001465 0.390865 -0.327842 -0.057829 0.287297 -0.197932 -0.056284 -0.084612 0.303058 0.353923 -0.039560 0.076283 -0.183895 -0.160885 0.016257 -0.342461 0.252333 -0.476033 0.178600 -0.734698 -0.215233 -0.164433 -0.056824 -0.127433 -0.141601 -0.129304 -0.057196 -0.009849 -0.094386 -0.261824 0.132282 -0.112926 0.135398 0.065966 0.047525 0.123231 0.179077 -0.216016 0.340390
ناروغانو 0.746172 -0.352518 -0.023863 0.456452 0.537638 -0.069001 -0.772327 0.325625 -0.132152 -0.282182 0.135221 -0.062496 0.119178 -0.047610 -0.172232 -0.249269 -0.212859 0.123997 0.273337 -0.000897 -0.163818 0.226461 -0.114072 -0.340624 -0.010451 0.129274 -0.505765 -0.095550 -0.305354 0.263614 -0.301383 -0.275213 -0.338147 -0.055035 0.352904 0.258097 0.011451 -0.024739 -0.412196 0.048060 -0.446595 -0.175468 0.004927 -0.142637 0.553485 0.204875 0.635447 0.214975 -0.104806 0.026089
نشتوالی 0.465234 0.385883 0.543254 0.156560 0.442066 0.536684 -0.557542 0.135332 -0.002401 0.027556 0.023271 0.338467 0.180525 -0.094737 -0.501881 0.125172 0.352664 0.216297 0.221876 0.238309 0.194146 -0.381487 -0.128252 -0.598210 0.119864 0.544179 -0.268665 0.184919 0.457935 -0.028539 0.083217 -0.083831 0.253399 0.363206 0.199760 -0.300661 -0.101160 -0.422162 0.012263 -0.237756 0.416018 -0.008387 0.700527 -0.202733 0.721661 0.398833 -0.256964 0.113182 -0.272811 -0.310633
نو 0.204816 0.299246 -0.135238 0.026036 0.183665 0.075936 0.276298 -0.407393 0.462079 -0.393312 -0.099262 0.289114 -0.190603 0.293308 0.253057 -0.088733 -0.595287 -0.259394 0.162038 -0.106510 0.059432 0.219746 -0.232086 -0.001390 -0.229886 0.018043 -0.103761 -0.302708 -0.002569 0.302916 0.117137 -0.003455 -0.287797 0.096719 0.066725 0.058365 -0.407269 0.288037 -0.360230 -0.517086 0.041170 -0.392342 0.178410 0.025024 0.262510 0.102326 0.145530 0.244156 0.130596 -0.376409
هغوی 0.501100 -0.306548 -0.203686 0.456002 0.543315 0.257935 -0.665823 0.130091 -0.179135 0.011466 0.065196 -0.064870 0.260462 -0.016778 -0.290890 -0.464719 -0.131579 0.095761 -0.231382 0.027164 -0.274607 0.150627 -0.535804 -0.175925 -0.340363 0.540157 -0.125078 0.069042 0.080932 0.267278 -0.441292 -0.073557 -0.362893 0.275921 0.185110 0.634450 0.106923 0.019394 0.200982 -0.074723 0.051063 0.103144 -0.104258 -0.331324 -0.013433 0.097213 0.580912 0.255788 -0.129432 0.318954
هوايي 0.214177 -0.182571 -0.137272 0.330812 0.726576 0.134913 0.199539 0.008036 -0.130395 0.072683 -0.110070 0.476405 -0.371333 -0.007437 0.229664 -0.221978 -0.038404 -0.040914 -0.047021 0.232329 0.022539 -0.016089 0.097487 -0.477524 -0.325920 -0.106751 -0.094051 -0.082783 0.482219 0.082637 -0.708446 -0.046619 -0.349391 0.126025 -0.174612 -0.001417 -0.054454 0.100753 -0.167808 -0.483877 -0.528726 0.149394 -0.330413 0.460763 0.001435 -0.435299 0.264256 0.535263 -0.412835 0.069017
ورسره -0.210491 -0.189211 -0.653813 -0.087312 -0.210664 -0.076129 0.484205 -0.002322 -0.066634 0.135170 0.368430 -0.394300 -0.074745 0.130285 -0.278610 0.146982 0.090153 -0.195379 -0.208773 0.164361 0.068236 0.466059 -0.218791 0.626852 -0.250842 -0.147296 0.593379 0.075375 -0.580570 0.171060 -0.192267 0.159514 -0.412844 0.140773 0.018711 0.472166 -0.063905 0.433388 -0.291695 0.129232 0.307448 0.095365 -0.034799 0.247915 -0.482450 -0.506089 0.023850 0.130111 0.336569 0.040315
وو. -0.089019 -0.004869 -0.200610 -0.040732 0.088755 0.031635 0.105321 -0.014999 0.237987 -0.309823 0.404971 -0.332157 0.414981 -0.074242 -0.459229 0.053823 0.256623 -0.696156 0.180204 0.382884 -0.170073 -0.024041 -0.129546 0.132633 -0.455945 -0.258380 -0.209132 -0.020779 -0.625439 0.363928 -0.102744 0.047388 -0.167088 0.307820 0.226456 0.331233 -0.460373 0.198564 -0.287647 0.116999 0.309268 -0.244179 0.511081 0.530203 -0.244314 -0.264802 -0.260097 0.133886 -0.149339 -0.347163
وژل 0.223114 0.214154 0.276617 -0.272396 0.262902 -0.160480 -0.300867 0.277357 0.375920 -0.434037 -0.150914 0.297641 0.210410 -0.190763 0.298503 0.025452 0.062466 -0.469426 0.150868 0.554378 -0.547386 -0.031558 -0.156638 -0.127559 -0.100176 -0.420169 -0.401938 -0.281146 0.367746 0.076739 -0.020252 -0.050619 0.220158 0.362933 -0.204635 -0.479276 0.038314 -0.063705 0.114085 -0.503540 -0.080070 -0.388477 0.376868 0.109338 -0.200039 0.058154 -0.339639 0.002978 -0.224521 -0.102525
ویاند 0.051790 0.000397 0.519389 0.120104 0.187129 0.239050 0.070933 -0.018325 0.278903 -0.082012 0.115977 0.440274 0.398525 0.116274 0.174567 0.106419 -0.895947 0.021401 -0.124962 0.338364 0.258081 -0.107166 0.489314 0.218288 -0.268721 -0.266687 -0.444923 -0.318051 -0.107933 -0.061745 -0.205920 -0.048556 0.105744 0.168074 -0.010588 -0.578437 -0.205012 -0.174724 -0.182414 -0.494271 -0.127841 -0.718841 0.331316 -0.467995 0.279167 -0.067880 -0.039585 0.383519 -0.035263 0.241230
پاکستاني 0.301640 -0.251368 0.046507 0.063643 0.154587 0.008938 -0.381766 0.502195 -0.089371 -0.299796 -0.167485 0.124163 -0.251323 0.200749 -0.203732 -0.071199 0.085803 0.344916 0.091226 -0.034728 -0.509473 -0.121374 -0.062524 -0.132990 0.169466 0.256865 0.103455 0.218211 0.228202 0.402026 0.398491 -0.129161 -0.007091 0.250147 0.051545 0.183802 -0.061072 0.215162 0.021000 0.396391 -0.126384 -0.235169 0.095955 -0.343694 0.432376 0.059581 0.073385 -0.109247 -0.412430 -0.115316
پرې 0.061070 0.077761 0.337007 0.013420 -0.146465 -0.076349 -0.300073 -0.036616 0.419851 -0.172527 0.011356 0.107432 -0.005335 0.336841 -0.066012 0.296312 -0.423206 0.476600 0.244364 0.078317 -0.540737 0.089626 0.381299 0.263414 0.462083 0.028104 -0.319278 -0.322130 0.145852 0.034730 0.276482 -0.350812 0.288216 -0.015893 0.015508 -0.630229 -0.172906 -0.006335 0.574552 -0.102673 -0.197085 -0.084238 -0.054160 -0.503296 -0.310459 0.468464 0.035319 -0.271819 -0.091135 0.264904
پېښې 0.341416 0.683937 0.230643 0.100376 0.365697 0.157728 0.173246 -0.144157 0.347322 -0.389599 0.092743 0.202659 -0.003878 -0.385735 -0.565740 -0.345359 0.266983 -0.535161 0.172697 0.309743 -0.163906 -0.298675 0.240821 -0.145475 -0.326845 -0.059685 -0.458358 0.117905 0.014843 0.230107 0.297990 0.053913 -0.012011 0.273302 0.082692 -0.137197 -0.040195 -0.428831 -0.055288 -0.380599 -0.054840 -0.483171 0.408399 -0.017178 0.219039 -0.203760 -0.370726 -0.051500 -0.338089 -0.512991
ځله -0.207811 -0.432909 -0.424666 -0.015515 -0.315813 -0.181604 0.165289 0.128289 -0.528402 0.224563 -0.028720 0.063020 0.736096 -0.156613 0.756641 0.559058 -0.370586 0.055356 -0.321515 0.055963 -0.200128 -0.348099 -0.006016 0.318474 -0.364406 -0.301598 0.150938 0.449558 0.285739 -0.279255 0.234195 -0.044571 0.090177 -0.076034 -0.569471 0.311624 0.444650 0.729148 0.376208 -0.028771 -0.113286 0.181118 -0.557969 -0.224200 -0.594225 -0.392289 0.097892 0.220105 0.282280 0.474755
چارواکو 0.320548 -0.326743 0.022514 0.097911 -0.070464 0.238319 -0.041277 0.416143 0.079837 -0.025153 -0.197722 -0.343449 0.087908 0.250525 -0.340868 -0.332270 0.381543 -0.089557 0.120145 -0.229549 0.138484 -0.097873 0.121955 -0.258091 -0.040979 0.098267 0.599261 0.159243 -0.007864 0.182442 0.365034 -0.091812 -0.016305 0.000303 0.277142 0.450064 -0.204644 0.120598 -0.567081 0.772665 0.140688 0.010302 0.086769 0.067457 0.445820 -0.279544 -0.058063 -0.006715 -0.109065 -0.278466
ډېرو 0.668185 -0.064321 0.278954 -0.074443 0.579623 0.297878 -0.352855 0.156622 0.211433 -0.566824 -0.379493 0.531202 -0.239056 0.261297 0.170535 0.043091 -0.579660 0.297391 -0.138828 -0.017362 -0.194908 0.351795 -0.334710 -0.169003 -0.190871 0.223763 -0.090989 -0.231987 0.144918 -0.023442 0.608342 0.205241 -0.202314 0.786027 0.543020 -0.271055 -0.198514 -0.362140 -0.412631 -0.363217 0.004584 -0.146076 0.235174 -0.071880 0.132014 0.290646 -0.277674 -0.120348 -0.203444 -0.233088
کسانو 0.875048 -0.146644 0.242021 0.024552 0.357125 0.279651 -0.690688 0.564270 0.028487 -0.375125 -0.233913 -0.016467 0.105714 0.258641 0.003638 -0.028391 -0.684517 0.463561 0.242614 0.389343 -0.232868 0.207879 -0.119922 -0.449281 -0.022627 0.273191 -0.464191 -0.014626 0.009786 -0.018499 0.109182 -0.221574 -0.152525 0.275109 0.096339 -0.304751 -0.045731 0.337051 -0.259842 0.281777 -0.088302 -0.148364 0.063328 -0.406045 0.167217 -0.081962 0.201739 0.279781 -0.292654 0.572901
کسان 0.065980 -0.327720 -0.323370 -0.154180 -0.415505 -0.139938 -0.082260 -0.187154 -0.124969 -0.103806 -0.091229 -0.493540 0.400494 0.335845 -0.054849 0.636847 -0.060528 0.041067 -0.171445 0.100895 -0.132213 -0.089097 0.374301 0.387118 -0.170119 -0.178226 0.365719 0.125388 -0.375895 -0.125852 0.524490 -0.105835 0.036536 -0.059897 -0.010232 0.260024 0.052590 0.321084 -0.270299 0.431624 0.226437 -0.047930 -0.173240 -0.403191 -0.076828 -0.441289 0.031969 -0.154374 0.518384 0.592913
کوي. -0.086288 0.108634 -0.083922 -0.185144 -0.223666 -0.231349 -0.179520 -0.127035 0.171841 -0.003535 0.104618 -0.398810 0.357463 -0.053276 -0.553099 -0.143525 0.463002 -0.340358 0.361359 -0.037752 -0.135105 -0.213149 0.388264 0.332150 -0.021955 -0.361744 0.019323 -0.116436 -0.090233 0.070368 0.530681 0.045486 0.181519 -0.143582 -0.056364 -0.184899 -0.314853 0.193956 0.044817 0.170091 0.198087 -0.068129 -0.033036 -0.207242 -0.204602 -0.295642 -0.174590 -0.085671 0.085148 -0.164634
کړې. 0.222646 0.503544 0.094369 0.065995 -0.549580 -0.444467 0.310309 0.088621 0.194421 -0.455369 0.752148 -0.340293 0.584151 -0.394459 -0.471895 0.028666 -0.152046 -0.328834 0.299746 0.535908 -0.462970 -0.000434 -0.462549 0.657283 -0.076104 -0.356689 -0.128451 -0.018079 -1.131180 -0.023786 0.230080 -0.015775 -0.083618 0.105186 -0.015120 -0.000273 -0.511589 0.466243 0.143840 0.116988 0.054231 -0.323721 0.118187 -0.198648 0.065713 -0.646262 -0.223824 -0.208429 -0.029792 0.425258
کړ -0.280012 0.370252 0.125531 0.001936 -0.260735 -0.231736 0.567521 -0.578887 0.242625 -0.140271 0.523759 -0.022963 0.131068 -0.221714 -0.673064 0.635956 0.143092 -0.359067 -0.321751 0.292679 -0.398800 -0.040794 0.262587 0.718338 0.165160 -0.152271 0.020644 0.003766 -0.715275 0.224118 0.465138 -0.014671 -0.050971 0.313732 -0.077224 0.142336 0.055862 0.179459 0.660661 0.017091 0.536568 -0.106536 0.168594 -0.173362 -0.342090 -0.172307 -0.412132 -0.813864 0.317520 0.158141
ګيتار 0.369511 -0.213493 0.034480 0.248757 0.423002 0.232157 -0.416110 0.348749 0.045133 0.136924 0.053152 -0.344500 0.340894 -0.008396 -0.347138 -0.753616 0.546141 -0.232757 0.367656 0.086331 0.018613 -0.057052 -0.313131 -0.658158 -0.336021 0.039236 -0.236504 -0.088137 -0.183132 0.341929 -0.591759 -0.201875 -0.000018 0.124056 0.382180 0.460805 -0.159955 -0.021992 -0.332768 0.111895 0.212023 -0.038365 0.452670 0.457831 0.008584 -0.272919 0.101057 0.529834 -0.307508 -0.115331
اروپا 0.280964 -0.279655 0.002427 -0.018318 -0.660245 0.049006 -0.029945 0.653853 -0.086954 0.293114 0.035208 -0.732998 0.143584 0.027193 -0.061774 -0.321966 0.419666 -0.320218 0.481071 0.179889 -0.246132 0.004719 0.194952 0.057072 0.139829 -0.272807 0.292858 0.020898 -0.240426 -0.138418 0.239992 -0.250434 0.084316 -0.075381 0.480083 0.591255 0.210992 0.111620 -0.250062 1.003351 0.305764 0.060126 0.137576 0.309841 -0.265871 -0.512672 -0.127262 -0.052330 -0.014490 0.325500
اړیکو 0.368840 0.337483 0.364189 -0.092114 0.630782 0.053661 -0.305109 -0.151844 0.156867 -0.212085 -0.105041 0.235551 0.188884 0.175016 -0.052939 -0.034614 -0.314940 0.287492 0.186804 -0.135662 0.390904 0.002187 -0.800085 -0.787108 -0.037755 0.456821 -0.464205 0.013006 -0.011840 0.160753 0.031041 0.155184 0.040492 0.263665 0.248500 -0.177331 -0.745382 -0.344681 -0.112966 -0.800802 0.105037 -0.238107 0.792440 -0.293041 0.854467 0.645621 0.120715 0.225186 -0.014018 -0.812371
بل 0.318186 -0.532235 0.069233 -0.058132 -0.030215 0.089056 -0.641506 0.465861 -0.147716 0.470131 -0.260877 -0.708807 -0.005574 0.235147 -0.231294 -0.179247 0.351003 -0.185150 0.000015 -0.190083 -0.085146 0.174420 -0.052287 -0.252500 -0.097397 -0.035318 0.375214 0.237226 0.134477 -0.195084 -0.056440 -0.073322 0.247063 0.079276 0.249321 0.159753 -0.081407 -0.123614 -0.586108 0.402817 0.404147 0.555036 -0.099320 0.268774 -0.389801 -0.079496 -0.194038 -0.241287 0.373302 -0.063083
بهر 0.312796 -0.480012 -0.012407 -0.040217 -0.104455 0.330405 -0.172503 0.428629 -0.395467 0.562717 -0.307935 -0.682806 -0.431329 -0.333912 0.062715 -0.737031 0.420179 -0.196237 0.473706 -0.262266 0.185109 0.023007 -0.189489 -0.763934 0.147225 0.207316 0.049012 0.292894 0.262781 0.075761 -0.323836 -0.149212 0.175141 -0.205362 0.150149 0.581081 0.208640 -0.524430 -0.665673 0.394898 0.098272 0.176720 -0.091865 0.552477 -0.127946 -0.372750 0.334849 0.187538 -0.220767 -0.274300
توګه 0.137696 -0.144295 0.066633 -0.014326 0.190958 0.065577 -0.481367 0.387258 -0.227064 -0.204237 -0.287334 0.363464 -0.398945 -0.049379 0.018807 -0.181390 -0.002473 0.115931 -0.324850 -0.151094 -0.508738 -0.037305 -0.109448 0.158587 -0.217946 -0.108087 -0.159304 0.053678 0.336472 -0.071970 0.117929 0.178298 -0.089330 0.092238 -0.109020 -0.013629 0.422154 -0.204256 -0.071213 -0.192306 -0.289452 -0.022762 -0.316682 -0.091496 -0.074506 -0.125577 -0.008920 -0.210024 -0.181156 -0.176519
دفاع 0.376647 -0.085632 0.284473 0.373969 0.470643 -0.118588 0.102231 0.022963 0.336404 -0.068793 -0.237809 0.102909 -0.224348 0.477922 0.182307 0.229563 0.025245 -0.085242 0.429438 -0.031424 -0.062350 0.120240 0.122945 -0.646555 -0.132530 0.065246 -0.347666 -0.125704 -0.189545 0.139439 -0.518037 -0.416902 -0.118087 -0.142492 0.106533 -0.006895 -0.344521 -0.210494 -0.608829 -0.116527 -0.115839 -0.020758 0.397548 0.569603 0.395220 0.206587 0.281726 0.265758 0.213049 -0.543637
دوه 0.343278 -0.099418 -0.186636 -0.086934 0.223210 -0.114216 -0.344406 0.117820 -0.130326 -0.094013 0.025241 -0.188978 0.222937 0.153343 -0.226380 0.305461 -0.270413 0.092229 -0.050667 0.316382 -0.469013 -0.099881 0.103394 0.274437 -0.334560 -0.116847 -0.297135 0.184351 -0.093753 -0.299708 -0.108438 -0.135830 -0.043619 -0.012783 -0.184800 -0.213708 0.182308 0.122462 -0.089590 -0.105856 0.108371 0.289033 -0.105427 -0.106798 -0.082763 -0.143980 -0.174155 0.070341 0.293006 0.368899
راهیسې -0.082991 -0.083648 0.001101 -0.297914 -0.534925 0.084505 0.197364 0.157165 -0.368358 0.420569 -0.708242 -0.213349 -0.349292 -0.040172 0.404684 -0.236116 0.809035 0.384421 0.174262 -0.428119 0.814503 -0.380254 0.375898 -0.588269 0.018524 0.135679 0.349682 0.327610 0.461148 -0.495535 0.375145 0.547731 0.380596 -0.130072 -0.276455 -0.283042 0.300664 -0.113910 -0.538324 0.313856 0.421131 0.290480 -0.003856 0.241281 -0.209996 -0.099252 -0.441823 0.386809 -0.044593 -0.105943
زده -0.105407 -0.459032 -0.430263 -0.376100 -0.096077 -0.156661 -0.181575 -0.378266 -0.303734 0.306834 -0.066238 -0.619294 -0.029294 0.184083 0.310785 -0.521687 0.115833 0.181856 0.313740 -0.107291 0.448053 0.056471 0.001660 -0.240075 -0.099609 0.073703 -0.144204 -0.057515 -0.095909 -0.005875 -0.860638 0.107664 -0.004637 -0.312172 -0.148950 0.536134 0.090045 0.064572 0.012636 0.032899 -0.155654 0.196844 0.027142 0.449877 -0.019767 0.076155 0.951582 0.504401 0.171474 0.379196
سفر -0.115512 0.306055 -0.054501 0.122480 -0.037608 -0.318281 0.768732 0.092809 -0.114334 0.300018 0.186175 -0.167792 0.572155 -0.004460 -0.179440 -0.009063 0.088951 -0.652818 0.116992 0.201724 0.337036 -0.015601 -0.477357 0.123386 -0.161828 -0.293036 0.450176 0.676511 -0.075113 -0.331586 0.134376 0.242600 0.119650 0.171021 0.141823 0.364028 -0.213613 0.208808 0.352439 0.195974 0.120882 -0.105638 0.503265 0.284513 0.250634 -0.227715 -0.256747 0.105021 0.127674 -0.180059
سولې -0.092683 0.313475 0.574380 -0.237505 0.261683 0.372209 0.239271 -0.323644 0.268019 -0.220576 -0.434139 0.561986 0.044307 0.082328 -0.177262 -0.441570 0.030273 0.337720 -0.290966 -0.492639 0.191555 -0.221635 -0.301202 -0.205539 -0.235839 0.405736 0.415746 0.115300 0.277845 0.164248 0.831131 0.707678 0.212225 0.607531 -0.060110 -0.105503 -0.528030 -0.165026 0.035219 -0.191981 0.189361 -0.492930 -0.026527 -0.383464 0.276009 -0.190078 -0.314677 0.144650 -0.330238 -0.559734
